SVM-light Version V6.02
0 # kernel type
3 # kernel parameter -d 
1 # kernel parameter -g 
1 # kernel parameter -s 
1 # kernel parameter -r 
empty# kernel parameter -u 
104883 # highest feature index 
19820 # number of training documents 
4798 # number of support vectors plus 1 
-0.22797852 # threshold b, each following line is a SV (starting with alpha*y)
-0.0011745198814033554202129749910455 1:1 41:1 42:3 56:2 74:1 92:1 105:1 107:1 134:1 136:1 165:2 195:1 343:2 563:2 692:1 698:1 771:1 817:1 968:1 1038:2 1176:1 1243:1 1387:1 1908:1 1914:1 2638:1 2661:1 2867:1 2900:1 2910:1 3424:1 5735:1 5840:2 5856:1 6542:2 6543:1 22872:1 45547:1 #
0.0011745198814033554202129749910455 1:1 4:2 8:3 12:1 22:5 36:3 37:1 39:1 42:6 92:1 94:1 107:1 110:1 136:1 154:1 155:1 157:1 163:1 172:3 221:1 230:1 255:1 266:1 297:1 310:1 333:2 370:1 508:1 572:1 587:1 590:1 679:1 698:1 724:1 736:1 777:1 797:1 818:1 867:1 892:1 964:1 968:1 1015:1 1022:1 1135:1 1187:1 1375:1 1415:1 1844:1 1931:1 2052:1 2159:1 2203:1 2229:1 2984:1 3676:1 3681:1 3802:1 3862:1 6289:1 7413:1 9462:1 9506:1 9591:1 14415:1 41356:1 47121:1 #
-0.0011745198814033554202129749910455 1:1 4:1 19:1 64:1 88:1 92:2 128:1 136:1 162:1 233:1 300:1 312:1 332:1 338:1 590:1 601:1 712:1 769:1 789:1 818:1 988:1 1273:1 1385:1 1476:1 1489:1 1594:1 1872:1 1917:1 2184:1 2224:1 2256:1 2496:1 2531:1 2562:1 2709:1 2743:1 2752:1 3216:1 3316:1 3333:1 3453:1 3463:1 3551:1 4322:1 4544:1 5378:2 5483:1 5836:1 6900:1 7205:1 7720:1 8088:1 8357:1 9297:1 10490:1 10998:1 11591:1 12804:1 13198:1 19276:1 23799:1 30150:1 40915:1 43218:2 44430:1 49141:1 59322:1 85389:1 85390:1 85391:1 85392:1 #
0.0011745198814033554202129749910455 1:1 22:1 107:1 136:1 235:1 989:1 1300:1 1373:1 2587:1 3281:1 5998:1 13311:1 #
-0.0011745198814033554202129749910455 1:1 63:1 70:1 78:1 107:1 118:1 158:1 182:1 292:1 316:1 374:1 603:1 698:1 707:1 724:1 736:1 780:1 791:1 797:1 799:1 851:1 852:1 893:1 951:1 991:1 1087:1 1195:1 1246:1 1380:1 1454:1 1492:1 1573:1 1594:1 1617:1 1692:1 1769:1 2000:1 2132:1 2134:1 2562:1 2583:1 2624:1 2717:1 2731:1 2732:1 2738:1 2800:1 2985:1 3004:1 3102:1 3393:1 3407:1 3649:1 3985:1 5416:1 6046:1 7346:1 8091:1 9190:1 9585:1 10149:1 10566:1 10738:1 11914:1 13163:1 15287:1 16056:1 28327:1 70185:1 98530:1 #
0.0011745198814033554202129749910455 1:1 805:2 1682:4 2878:2 42033:1 55563:3 55564:1 #
0.00070764297021432801156060055092212 1:1 4:19 8:38 12:20 14:1 17:12 18:1 20:1 21:2 22:12 33:5 37:3 39:1 42:25 48:2 49:2 51:1 52:4 54:1 56:4 57:1 60:1 63:3 65:1 70:3 72:10 76:1 78:3 88:2 92:1 93:2 94:2 97:1 99:2 101:1 107:8 108:4 110:10 111:2 118:3 125:5 126:1 128:8 134:3 136:3 137:2 139:2 150:1 159:3 165:7 166:1 167:1 175:2 176:2 179:2 182:1 188:1 193:5 202:1 210:2 220:1 221:4 227:1 235:2 249:1 255:4 258:2 270:1 271:5 277:15 288:1 292:6 293:1 312:2 313:2 332:1 333:2 372:2 374:2 412:1 516:2 528:1 539:3 542:1 544:1 554:3 556:1 570:3 572:3 574:1 588:1 590:3 594:7 595:1 600:2 601:2 602:1 611:1 628:1 636:1 679:2 692:5 695:7 698:3 705:1 708:1 719:1 724:4 748:1 749:1 760:2 761:7 771:2 775:3 789:1 792:1 797:1 798:1 799:1 805:2 813:3 832:1 844:2 846:2 851:1 859:3 881:1 930:1 937:1 939:1 941:1 943:1 951:1 968:1 969:1 988:2 989:6 991:1 1002:1 1022:1 1023:11 1044:2 1055:1 1058:1 1063:2 1088:1 1091:1 1111:9 1127:10 1132:2 1135:2 1147:3 1154:1 1176:1 1186:1 1187:1 1189:1 1196:3 1207:1 1210:1 1211:2 1213:1 1227:5 1243:1 1244:2 1246:1 1261:1 1264:1 1270:1 1274:1 1283:1 1290:1 1295:1 1300:1 1305:1 1310:1 1316:1 1323:10 1343:1 1369:1 1373:2 1375:1 1376:2 1388:1 1397:1 1415:1 1448:1 1449:1 1530:6 1540:2 1549:2 1553:1 1559:1 1569:1 1594:1 1605:1 1610:1 1640:1 1656:1 1658:1 1660:1 1676:1 1699:1 1722:1 1725:1 1752:2 1800:1 1803:1 1811:1 1844:1 1853:1 1856:1 1859:1 1860:1 1867:1 1868:1 1892:1 1902:2 1940:5 1982:1 1999:1 2052:1 2056:1 2117:1 2133:1 2158:1 2167:1 2170:2 2187:1 2194:1 2209:1 2218:1 2221:1 2223:1 2226:1 2229:2 2243:1 2276:1 2483:1 2490:2 2517:4 2546:1 2638:1 2698:1 2717:2 2799:1 2819:4 2932:1 2960:1 2985:1 3024:1 3035:2 3062:1 3069:1 3088:1 3092:1 3118:1 3120:1 3189:1 3191:1 3219:1 3222:2 3244:1 3255:3 3277:1 3293:4 3316:1 3318:1 3327:1 3354:1 3380:1 3402:2 3407:2 3435:1 3478:1 3488:1 3517:1 3559:3 3562:1 3571:3 3613:1 3664:2 3665:1 3666:1 3667:1 3668:2 3669:1 3670:1 3671:1 3672:1 3673:1 3674:1 3675:3 3676:1 3677:1 3681:1 3763:1 3859:1 3884:1 4073:5 4091:1 4232:3 4268:2 4271:1 4312:1 4362:1 4364:7 4768:2 4893:1 4963:3 5052:1 5061:1 5142:1 5199:3 5307:7 5374:1 5399:2 5401:1 5421:1 5512:3 5564:1 5778:1 5856:2 5872:1 5888:1 5935:1 6064:1 6308:1 6345:10 6495:1 6604:1 6919:2 6957:1 7057:1 7384:1 7593:5 7773:1 7787:1 7796:1 8338:1 8341:1 8377:1 8444:1 8481:1 8542:1 9465:1 9547:1 9704:1 9801:1 9833:1 9877:1 10095:5 10166:1 10862:2 11073:1 12854:3 13154:1 13330:1 13548:1 13681:1 13891:1 14020:3 15714:1 15845:1 15968:1 16154:3 19203:1 19252:1 20423:1 21125:1 22097:1 22276:1 22522:3 22523:7 22524:6 22525:6 22526:1 22527:3 22528:1 22529:3 22530:1 22531:1 22532:2 22533:1 22534:1 22535:1 22536:1 22537:1 22538:1 22539:1 22540:1 22541:1 22542:1 22543:1 22544:1 22545:1 22546:1 22547:1 22548:1 22549:1 22550:1 22551:1 22552:1 22553:1 22554:1 #
0.0011745198814033554202129749910455 1:2 4:3 8:5 12:1 14:1 17:3 33:2 42:3 56:1 63:1 72:2 88:3 107:2 109:1 110:1 125:1 136:1 157:3 182:1 220:2 224:1 296:1 332:2 605:1 679:1 748:1 773:1 1064:1 1167:1 1378:1 1578:1 1652:1 1656:2 1694:1 1765:1 1845:1 1931:1 2041:1 2159:1 3022:1 3178:2 3389:1 3551:2 3592:2 3691:1 4118:2 4270:1 5526:1 5580:1 5728:1 7157:2 7158:1 7159:1 7160:1 7161:1 7162:1 7163:1 7164:1 7165:1 7166:1 7167:1 7168:1 7169:1 #
0.00086772174181880658630494629335317 1:1 4:1 8:4 12:6 17:8 22:2 33:1 42:5 54:1 56:4 63:3 72:1 88:2 91:1 92:1 94:1 105:1 107:1 110:1 116:1 118:1 120:1 122:3 125:1 128:1 134:3 136:4 137:1 163:1 164:1 165:3 198:1 211:1 271:1 277:3 286:1 292:1 412:1 513:204 532:1 544:1 549:1 554:1 556:1 579:1 596:1 639:2 644:1 679:1 687:2 695:1 719:2 739:1 761:1 777:1 881:1 894:1 979:1 991:1 1008:2 1019:1 1050:1 1083:2 1106:1 1149:1 1157:1 1232:1 1268:1 1471:2 1594:1 1640:1 1652:1 1752:1 1823:1 1831:1 2126:2 2131:2 2151:1 2192:1 2488:1 2490:1 2499:1 2732:1 2736:1 2738:1 2762:1 2767:1 2796:1 2799:2 2870:1 2907:1 2964:1 2996:4 3083:1 3208:2 3401:2 3435:1 3462:1 4177:1 4227:1 4290:2 4291:1 4824:1 5640:1 6172:1 7176:2 7179:1 7336:1 7516:1 9187:1 9252:1 9794:2 10009:1 12314:1 12340:1 12959:1 13960:1 14171:1 15237:4 16773:4 16775:2 16776:1 17780:1 19965:1 19966:1 19967:1 23222:1 23403:1 23663:1 35207:1 35819:3 35820:1 35821:1 38168:1 38169:1 38170:1 38171:1 38172:1 38173:1 38174:1 #
0.0011745198814033554202129749910455 1:1 2574:1 3075:1 #
0.0011745198814033554202129749910455 1:2 4:8 8:11 9:1 12:16 17:5 21:1 22:12 33:4 36:4 37:1 39:2 42:13 49:1 54:4 56:1 63:9 65:1 70:5 72:5 79:1 86:1 88:9 91:1 105:1 107:5 111:3 122:3 125:5 128:12 129:3 134:8 136:15 137:2 139:2 160:1 169:1 171:1 172:2 175:1 176:3 178:1 180:1 182:3 183:2 184:1 210:8 215:1 221:2 224:1 226:1 230:2 235:1 271:6 277:4 278:1 292:2 304:2 306:1 316:1 323:5 343:4 345:1 346:2 371:1 377:1 434:1 516:4 539:1 542:2 556:2 563:1 565:1 570:2 571:2 572:3 594:13 600:1 601:1 604:1 612:1 627:4 628:1 629:1 638:2 639:1 649:2 661:3 683:3 692:1 698:2 704:1 708:1 716:1 725:1 739:3 748:1 751:4 760:4 761:3 771:5 773:1 775:2 797:1 805:1 842:1 867:2 892:1 894:2 930:1 937:1 968:1 986:1 988:1 989:2 990:10 1004:1 1005:1 1023:1 1032:1 1038:1 1083:1 1088:2 1175:1 1187:1 1201:1 1259:2 1284:1 1285:1 1314:2 1346:2 1380:1 1397:1 1416:1 1426:1 1461:2 1471:3 1510:2 1566:2 1594:3 1600:1 1616:3 1648:2 1673:1 1685:1 1689:3 1696:1 1707:1 1717:1 1723:4 1752:1 1771:1 1791:5 1800:1 1845:1 1856:1 1902:3 1906:1 1980:1 2010:1 2035:2 2045:2 2058:1 2060:2 2092:2 2093:1 2130:1 2135:3 2178:2 2203:1 2258:1 2483:4 2613:1 2628:1 2661:2 2676:1 2689:1 2699:1 2731:2 2736:1 2793:2 2809:1 2901:2 2964:1 2996:1 3032:2 3033:1 3053:3 3075:1 3263:1 3267:3 3317:1 3332:1 3364:13 3381:1 3478:1 3488:1 3512:4 3519:1 3539:2 3800:1 3868:1 3900:1 3916:1 4177:1 4228:1 4243:3 4268:1 4281:1 4338:1 4462:1 4463:1 5307:1 5542:1 5588:3 5872:1 5874:1 6359:3 6584:1 7007:1 7175:1 7306:4 7342:1 7381:1 7483:1 7484:1 7614:1 7624:4 7631:1 7632:1 7633:5 7640:2 7642:1 7644:1 7646:1 7922:1 7992:1 8467:7 8584:2 9304:1 9697:1 11115:1 11172:1 11446:1 11537:1 11998:1 12306:4 13091:3 13150:1 15413:1 15523:1 15603:2 15835:1 21456:2 25235:1 27888:1 29153:1 41680:1 44364:1 47539:1 53599:1 58891:18 61401:1 #
-0.0011745198814033554202129749910455 1:2 4:1 8:5 12:4 17:2 33:1 37:1 39:5 42:2 49:1 63:2 65:1 72:2 76:1 77:1 80:1 107:1 110:1 125:1 136:1 163:2 172:1 182:2 211:1 219:1 220:1 221:1 224:1 235:1 251:1 265:1 271:2 286:2 292:2 310:2 314:1 341:1 344:1 346:1 361:1 370:1 372:1 479:1 543:1 579:1 581:1 594:4 692:1 708:1 739:1 741:1 761:1 775:1 838:1 859:1 968:1 989:1 1005:1 1064:1 1097:1 1118:2 1123:1 1288:1 1375:1 1594:1 1600:1 1664:1 1719:1 1915:1 1960:1 2028:1 2065:1 2809:1 2819:1 2903:1 2996:1 3293:1 3497:1 3702:1 3839:1 3869:2 4107:1 4199:1 4305:4 4545:1 5096:1 5623:1 5767:1 7962:1 8004:1 8006:1 8508:1 9192:2 9813:1 10865:1 11698:1 12278:1 16682:1 18650:1 19341:2 24404:1 26673:1 29197:4 30926:1 31643:1 35360:1 37619:1 45060:1 48144:1 49998:1 50700:1 50995:1 56237:1 64478:1 67112:1 67113:2 67114:1 67115:1 67116:1 67117:1 67118:1 67119:1 67120:1 67121:1 67122:1 67123:1 67124:1 67125:1 67126:1 67127:1 67128:1 67129:1 67130:1 67131:1 67132:1 67133:1 #
-0.0011745198814033554202129749910455 1:1 195:1 235:1 292:1 344:1 544:1 555:1 563:1 594:1 601:1 1214:2 1284:1 1285:1 1341:1 1652:1 2001:1 2613:1 3676:1 4181:1 48810:1 64113:2 70912:1 70913:1 #
-3.1499731628982581186325384603464e-05 1:1 8:2 12:3 17:1 19:1 22:3 30:1 37:1 41:1 65:1 110:2 116:1 117:1 125:2 134:1 136:4 137:1 221:1 291:1 298:1 304:1 318:2 319:1 344:2 539:1 542:1 563:1 568:1 579:1 584:1 586:2 684:1 692:1 725:1 769:1 770:1 771:2 772:1 773:1 775:1 930:1 951:1 1387:1 1723:1 1845:1 2002:1 2664:1 2694:1 2996:1 3010:1 3317:1 3768:1 4268:1 4334:1 4498:1 5035:1 5596:1 6842:1 7393:2 7709:1 8562:1 12234:1 16187:1 17808:1 19763:2 21511:1 21722:1 27519:1 30937:1 32154:1 32848:1 34799:1 41806:1 56595:1 58854:1 73195:1 73196:1 #
0.0011745198814033554202129749910455 1:1 22:1 36:1 42:1 171:1 195:1 251:16 310:6 455:2 467:2 532:1 582:1 661:2 692:2 761:1 968:6 1406:4 2835:4 2922:3 5965:1 5971:1 6102:1 6677:1 10553:2 13198:1 15058:8 16189:1 17417:1 17698:1 20104:4 20106:4 20112:1 20113:2 20146:2 20149:1 20157:2 24684:1 24685:1 24686:1 24687:1 24688:1 24689:2 24690:1 24691:1 24692:1 24693:1 24694:1 24695:1 24696:1 24697:1 24698:1 24699:1 24700:1 24701:1 24702:1 24703:2 24704:1 24705:2 24706:1 24707:1 24708:2 24709:1 24710:1 24711:3 24712:3 24713:1 24714:1 24715:1 24716:1 24717:1 24718:1 24719:1 24720:1 24721:1 24722:1 24723:1 24724:1 24725:1 24726:1 24727:1 24728:1 24729:1 24730:1 24731:1 24732:1 24733:1 24734:1 24735:1 24736:1 24737:1 24738:1 24739:1 24740:1 24741:1 24742:1 24743:1 24744:1 24745:1 24746:1 24747:1 24748:1 24749:1 24750:1 24751:3 24752:1 24753:1 24754:1 24755:1 24756:1 24757:1 24758:1 24759:1 24760:1 24761:1 24762:1 24763:1 24764:1 24765:1 24766:1 24767:1 24768:1 24769:1 24770:1 24771:1 24772:1 24773:1 24774:1 24775:1 24776:1 24777:1 24778:1 24779:1 24780:1 24781:1 24782:1 24783:1 24784:1 24785:1 24786:1 24787:1 24788:1 24789:1 24790:2 24791:1 24792:2 24793:1 24794:1 24795:1 24796:1 24797:1 24798:1 24799:1 24800:1 24801:1 24802:1 24803:1 24804:1 24805:1 24806:1 24807:1 24808:1 24809:1 24810:1 24811:1 24812:1 24813:1 24814:1 24815:1 24816:1 24817:1 24818:1 24819:1 24820:1 24821:1 24822:1 24823:1 24824:1 24825:1 24826:1 24827:1 24828:1 24829:1 24830:1 24831:1 #
-0.0011745198814033554202129749910455 1:1 2:1 64:1 177:1 228:1 594:1 601:1 1083:1 1327:1 2743:1 2745:1 3336:1 5728:1 8198:1 12461:1 12482:1 12490:1 14737:1 15088:1 15240:1 20204:1 21882:1 24587:1 26067:1 30931:1 41596:1 49661:1 49905:1 51408:1 67300:1 69239:1 76409:1 77513:1 96215:1 96216:1 96217:1 96218:1 96219:1 96220:1 96221:1 96222:1 96223:1 96224:1 96225:1 96226:1 96227:1 96228:1 96229:1 96230:1 96231:1 #
-0.0011745198814033554202129749910455 1:1 8:2 33:1 42:1 78:1 88:1 99:1 136:2 137:1 163:1 164:1 165:2 199:1 277:1 310:1 572:1 602:1 760:1 1506:1 2662:1 3313:1 3319:1 3443:1 3790:1 3925:1 4438:1 5070:1 8299:1 8581:1 8698:1 9204:1 9293:1 9499:1 10220:1 10757:1 17513:1 17983:1 18665:1 19367:1 25210:1 28380:1 30355:1 32619:1 33313:1 33758:1 33820:1 34700:1 37488:1 38234:1 43730:1 44282:1 48875:1 49993:1 57698:1 57706:1 58897:1 61981:1 63056:1 64290:1 64477:1 67876:1 73339:1 77120:1 81392:1 81883:1 81915:1 88231:1 90540:1 102817:1 102818:1 102819:1 102820:1 102821:1 102822:1 #
0.0011745198814033554202129749910455 1:1 4:3 8:1 21:1 72:1 107:2 136:1 223:1 239:1 539:2 543:1 582:1 638:1 639:1 670:1 679:1 687:1 760:1 773:2 1300:1 1373:1 1682:2 1769:1 1770:1 1940:1 2722:1 4360:1 5755:1 13768:1 74610:1 87134:1 #
0.0011745198814033554202129749910455 1:1 185:1 211:1 1114:1 1406:1 4112:1 4271:1 4362:1 13926:1 #
-0.0011745198814033554202129749910455 1:1 4:1 8:1 12:2 39:1 42:1 56:1 99:1 128:2 139:1 195:1 277:2 288:1 338:1 374:1 539:1 554:1 570:1 594:1 612:1 687:1 748:1 1176:1 1257:1 1372:1 1569:1 1843:1 2517:1 2897:1 2907:1 3293:1 3676:1 3840:1 4228:1 5061:1 5711:1 5864:1 6072:2 7458:1 7671:1 8335:1 11160:1 12378:1 14413:1 17459:1 23331:1 30976:1 36701:1 44633:1 45096:1 70023:1 79446:1 80323:1 85161:1 93708:1 100194:1 100195:1 #
0.0011745198814033554202129749910455 1:1 185:1 211:1 1114:1 4271:1 4362:1 60789:1 79734:1 #
0.00068705385074441238657527719624341 1:2 4:9 8:40 12:27 17:11 21:1 22:15 33:7 36:1 37:4 42:20 49:22 52:9 54:9 56:8 60:23 63:3 65:3 70:1 72:18 78:2 88:16 92:1 94:5 95:1 105:3 107:28 110:2 117:6 118:1 125:3 128:5 129:1 134:4 136:17 137:1 159:2 162:3 164:2 165:9 166:3 171:1 172:1 178:3 182:1 184:1 211:2 219:1 220:1 221:7 224:2 233:2 235:2 263:1 270:2 271:1 277:6 280:1 282:1 291:2 292:27 304:1 310:2 331:1 333:1 343:1 344:2 346:1 370:1 371:1 401:1 516:9 520:1 542:1 570:1 572:1 577:2 579:1 584:1 594:2 602:1 603:2 614:1 638:1 639:1 682:1 684:1 687:1 695:1 698:1 712:1 729:1 739:1 760:1 761:5 774:6 775:6 777:8 790:1 800:2 813:1 817:1 825:1 846:1 851:2 852:1 859:1 896:1 968:2 969:1 984:1 988:1 989:2 991:1 1002:1 1015:1 1022:1 1050:1 1063:3 1064:1 1114:1 1127:1 1175:1 1176:1 1187:1 1264:1 1267:1 1278:1 1281:1 1375:2 1376:1 1420:2 1447:1 1449:1 1461:2 1463:1 1499:1 1550:1 1585:1 1591:1 1594:2 1604:1 1626:1 1632:1 1640:1 1660:1 1661:2 1677:1 1692:1 1704:2 1723:1 1725:1 1791:1 1800:1 1818:1 1828:2 1842:1 1872:1 1906:1 1915:1 1916:1 1925:1 2000:1 2028:1 2115:1 2126:1 2203:1 2229:1 2244:1 2276:4 2485:1 2502:1 2533:2 2587:4 2638:1 2640:1 2661:1 2711:1 2724:1 2725:2 2731:2 2752:1 2819:1 2960:1 2964:1 3074:1 3113:1 3116:1 3119:1 3120:1 3121:2 3216:4 3226:1 3293:1 3306:1 3345:2 3421:1 3450:1 3473:1 3620:1 3688:1 3758:1 3763:1 3787:1 3905:1 3967:1 4181:3 4376:1 4379:1 4507:1 4668:1 4786:1 4788:1 4893:2 4923:1 5059:1 5121:1 5142:1 5249:1 5603:1 5783:1 5820:1 5893:1 6140:1 6285:1 6508:1 6668:1 6763:2 6768:2 7003:1 7056:1 7155:1 7403:1 7671:1 7681:1 7695:1 7951:1 8088:1 8096:1 8104:1 8110:1 8251:1 8357:3 8369:3 8461:1 8481:1 9167:2 9238:1 9499:1 9510:1 9516:1 9537:1 9845:1 9977:1 9978:1 9985:2 10385:1 10389:1 10408:1 10539:2 10710:2 11198:1 11311:1 11382:1 11660:1 11696:1 11987:1 12235:3 12237:1 13226:1 13443:1 14403:1 15525:1 15545:1 15582:1 15636:1 16186:1 16639:1 17512:3 17772:1 17983:1 18026:1 18331:1 18440:1 18458:1 21264:1 21275:1 21659:1 21803:1 23371:1 23394:1 23944:1 24894:1 25594:1 27044:1 28049:1 28581:1 28639:1 30019:1 33389:1 33994:1 34136:1 34378:1 35349:1 35356:1 35490:1 35621:1 37580:1 41513:1 41610:1 41861:2 42301:1 42746:1 43637:1 45180:32 45347:4 45555:2 45695:1 45842:1 45983:1 46633:1 48583:1 50433:1 53001:1 53027:1 53215:1 55845:1 57226:1 58326:1 58597:1 58966:1 60951:1 61205:1 63017:1 63314:1 64812:1 74534:1 76467:1 85915:1 88528:1 88874:1 103467:1 103468:1 103469:1 103470:1 103471:1 103472:1 103473:1 103474:1 103475:1 103476:1 103477:1 103478:1 103479:1 103480:1 103481:1 103482:1 #
0.0011745198814033554202129749910455 1:1 8:2 14:1 42:1 107:1 109:3 118:1 128:1 134:1 195:2 559:2 568:1 679:2 705:1 880:1 986:2 1045:1 1557:1 2092:2 2218:1 2483:1 2969:1 3378:1 3454:1 4260:1 5083:1 6668:1 13043:1 17065:2 17066:2 #
-0.0011745198814033554202129749910455 1:1 8:1 12:1 14:1 19:1 22:1 30:1 33:3 42:5 63:1 64:2 70:2 72:1 88:1 94:2 107:2 110:1 117:1 118:1 136:6 137:1 159:1 165:1 172:1 220:1 224:1 279:7 280:1 292:2 304:1 310:10 333:1 344:1 539:2 584:4 586:1 594:1 601:1 603:3 698:1 739:2 760:1 761:3 771:2 789:3 867:1 880:1 930:2 941:1 964:1 989:3 1015:1 1090:1 1307:2 1384:1 1447:1 1800:3 1993:2 2078:1 2517:1 2583:1 2638:1 2664:2 2951:1 2957:1 3120:1 3293:1 3395:1 3676:1 3755:1 3927:1 4221:2 4600:1 5060:1 5410:1 6035:1 6229:1 6404:1 6609:1 7718:1 9063:1 9073:1 9973:1 10516:2 11362:1 14265:1 17723:2 25267:1 26216:1 26522:1 27910:1 30339:1 31790:1 33669:1 36537:1 39556:1 46915:1 58316:1 60350:1 63248:1 66106:1 68290:1 83635:1 96908:1 96934:1 98750:1 103056:1 103605:1 103606:1 103607:1 103608:1 103609:1 103610:1 #
-0.0011745198814033554202129749910455 1:1 8:1 12:1 17:1 33:2 42:6 70:2 107:2 125:1 136:1 165:1 211:1 221:1 271:1 277:1 279:1 304:1 310:5 316:1 584:2 594:1 600:1 629:1 687:1 704:1 705:1 885:1 896:1 941:1 984:1 1023:1 1704:1 1941:1 2002:1 2613:1 2731:1 2732:1 2809:1 3246:1 3293:1 3615:1 3676:2 3903:1 5060:2 5944:1 5947:1 6229:1 6677:1 8256:2 10385:1 10516:1 10723:1 11542:2 14298:1 33450:1 45054:1 #
0.0011745198814033554202129749910455 1:3 4:8 8:22 12:4 14:2 17:4 22:20 30:1 33:2 37:1 42:8 53:1 56:1 60:3 63:2 65:1 70:2 72:10 80:2 87:2 88:1 91:1 94:1 95:1 107:3 110:4 125:6 128:5 129:1 134:4 136:17 137:2 159:21 163:1 164:1 165:1 172:1 178:1 183:2 184:1 195:2 209:2 215:1 219:1 220:1 221:1 224:1 230:1 232:1 233:1 234:1 235:2 238:1 239:2 243:2 250:1 251:1 255:1 271:2 277:5 279:2 286:3 291:1 292:1 304:2 309:2 310:2 312:2 331:1 340:4 341:1 343:2 344:3 345:3 346:1 366:2 370:2 372:3 374:2 389:2 409:1 415:1 444:1 471:1 476:1 513:9 523:1 542:1 543:6 549:2 551:3 554:3 555:1 556:2 559:2 560:1 563:3 565:2 568:1 582:2 586:2 590:2 594:1 596:2 600:3 603:1 611:2 614:1 627:2 628:2 629:2 682:1 692:3 695:1 697:1 705:1 708:1 716:2 739:4 761:5 769:1 773:1 777:2 797:1 807:1 852:1 886:1 893:2 915:1 958:3 968:3 969:1 981:1 985:1 988:1 989:2 1032:1 1038:1 1063:3 1081:1 1154:1 1187:2 1246:4 1259:2 1260:1 1267:2 1287:1 1361:2 1380:1 1395:1 1420:2 1454:1 1463:1 1519:2 1594:1 1616:2 1617:1 1652:3 1692:3 1704:1 1706:1 1752:1 1777:1 1822:2 1907:1 1923:1 1929:1 1937:1 2002:1 2058:1 2088:1 2147:1 2155:1 2580:3 2617:1 2657:1 2691:1 2715:1 2752:1 2819:1 2883:1 2928:1 2934:1 2986:1 2996:1 3051:1 3064:1 3100:1 3114:1 3116:1 3160:3 3316:2 3330:1 3399:3 3440:1 3459:1 3463:1 3477:1 4268:1 4538:1 4558:1 4700:1 4768:2 4786:1 4817:1 4862:1 4934:1 4979:1 5026:4 5143:1 5171:1 5307:1 5421:1 5596:1 5635:1 5892:1 6038:1 6117:1 6256:1 6268:1 6312:1 6335:1 6843:1 6853:1 6900:2 7079:4 7194:2 7681:1 7951:1 8176:1 8231:1 8534:1 8607:1 9190:2 9462:1 9475:1 9901:1 9973:1 10095:3 10240:1 10367:1 10484:1 10936:1 10960:1 11561:1 11570:1 11739:1 11932:1 12216:3 12234:1 12708:1 12710:1 12915:1 15280:1 15354:1 15510:2 15513:1 15798:1 15937:1 16060:1 16858:1 17356:1 17566:2 17674:2 17699:1 17716:1 17738:1 18223:2 18386:1 18491:1 18738:1 18931:1 19184:1 19601:1 19755:1 19764:1 20391:1 21026:1 21587:1 22573:1 23371:1 23725:1 25463:1 26679:1 28028:1 28670:3 29129:1 32575:1 33984:1 34847:1 34936:1 35145:1 35171:1 35270:1 35795:1 37654:2 37779:1 37896:1 38529:1 38943:1 39573:1 39664:1 40581:1 41104:2 41335:1 41382:1 42138:1 42246:1 42714:1 43279:1 45697:1 45778:1 45991:1 46430:1 47464:1 49468:1 50885:1 52461:1 56287:1 57702:1 60025:1 60677:1 62060:1 67635:1 68576:1 72116:1 72329:1 75371:1 75372:1 75373:1 75374:1 75375:1 75376:1 75377:1 75378:1 75379:1 75380:1 75381:1 75382:1 75383:1 75384:1 75385:2 75386:1 75387:1 75388:1 75389:1 75390:1 75391:1 75392:1 75393:1 75394:1 75395:1 75396:1 75397:1 75398:1 75399:1 75400:1 75401:1 75402:1 75403:1 75404:1 75405:1 75406:1 75407:1 75408:1 75409:1 75410:1 75411:1 75412:1 75413:1 75414:1 75415:1 75416:1 #
-0.0011745198814033554202129749910455 1:1 87:1 1471:1 3850:1 9931:1 35500:1 #
0.0011745198814033554202129749910455 1:1 4:3 8:15 12:5 17:6 18:1 22:10 33:4 37:1 41:1 42:10 56:1 70:2 72:5 87:1 88:2 92:1 94:2 105:2 107:7 110:4 111:2 117:1 118:1 124:1 125:1 134:14 136:14 154:1 159:2 162:1 163:6 165:5 166:1 183:1 191:1 195:2 209:1 220:1 221:2 235:1 239:1 263:1 267:1 271:2 277:1 286:3 290:1 292:1 304:4 310:1 311:1 316:1 318:1 327:1 332:1 333:1 343:1 344:1 358:2 366:1 369:1 370:1 513:5 542:1 543:2 549:3 551:1 554:1 556:2 559:1 563:1 570:1 577:1 579:4 594:1 596:1 600:1 602:2 603:1 611:1 652:1 682:1 698:1 704:2 705:1 708:1 724:1 725:1 726:1 739:4 761:4 768:1 777:3 785:1 817:6 818:1 859:1 867:3 892:1 893:1 906:1 968:1 989:1 991:1 1015:1 1064:1 1140:1 1194:1 1205:1 1240:1 1267:2 1296:1 1341:1 1388:1 1397:1 1416:3 1461:1 1640:1 1689:1 1692:1 1723:1 1725:1 1791:1 1809:2 1811:2 1818:1 1820:1 1822:1 1871:1 1907:3 1929:1 1931:1 2011:2 2034:1 2066:1 2078:1 2113:1 2122:1 2133:1 2147:1 2158:1 2229:2 2276:1 2529:1 2562:1 2613:1 2664:1 2668:1 2700:1 2711:1 2779:1 2925:1 2986:1 3069:1 3129:4 3170:1 3293:1 3305:1 3306:1 3349:1 3399:1 3517:1 3584:1 3817:1 3861:1 3945:1 4091:3 4148:1 4226:1 4274:1 5039:1 5153:1 5171:1 5489:3 5698:1 5736:1 6086:1 6680:1 6987:1 7092:1 7501:1 7503:1 8032:1 8245:1 8281:1 9187:1 9202:1 9976:1 10003:2 10385:2 10985:1 10987:1 11262:1 11438:1 11560:1 12228:2 14403:1 15228:1 16844:1 26622:1 26867:1 26928:1 32492:1 37533:1 41940:1 42776:1 44640:1 44641:1 45654:1 47654:1 49296:1 50220:1 70792:1 79027:1 96705:1 #
0.0011745198814033554202129749910455 1:1 4:7 8:11 12:5 17:4 22:7 30:1 33:2 37:1 42:12 52:1 53:1 54:3 57:1 58:1 60:6 63:5 72:7 79:1 87:1 88:4 94:1 96:1 105:3 110:8 117:1 122:1 125:2 128:1 134:7 136:20 152:1 159:3 163:3 165:5 183:2 195:1 209:1 221:1 224:3 239:1 240:1 264:2 277:3 286:1 288:1 292:2 295:1 309:1 312:1 332:1 343:1 345:2 346:3 359:1 361:2 366:1 372:3 373:1 385:1 389:1 478:1 516:2 522:1 532:1 543:3 549:1 551:3 554:1 555:1 556:1 559:1 563:1 564:1 565:1 572:1 577:1 580:1 582:1 588:1 590:1 596:1 600:2 603:1 611:1 620:1 627:2 628:1 629:1 644:1 663:1 670:1 682:3 692:1 705:5 716:1 719:1 724:1 748:2 760:1 770:1 773:4 777:3 785:1 853:1 867:1 876:1 950:1 968:4 989:2 991:1 1001:1 1063:1 1064:1 1169:1 1201:5 1205:1 1244:2 1259:2 1267:1 1278:1 1287:1 1361:1 1399:1 1410:1 1416:1 1419:12 1442:1 1461:1 1463:1 1466:1 1467:1 1471:1 1492:1 1519:1 1527:1 1569:1 1616:1 1640:1 1652:1 1707:1 1800:1 1907:3 1915:1 1928:1 1931:1 1985:1 2050:2 2112:1 2130:1 2140:1 2158:1 2213:1 2245:1 2271:1 2502:1 2574:1 2580:1 2664:1 2733:2 2800:1 2809:1 2814:2 2815:1 2994:2 2996:1 3010:1 3024:1 3063:1 3105:1 3129:1 3130:1 3222:1 3313:1 3458:1 3459:1 3463:3 3469:1 3473:1 3480:1 3547:1 3581:1 3620:6 3763:1 3800:1 3805:1 3939:1 3942:1 4091:1 4128:1 4243:1 4262:1 4268:1 4366:1 4379:1 4581:1 4909:1 4923:1 5026:1 5100:1 5211:1 5271:1 5315:1 5504:1 5783:1 5852:1 6068:2 6092:1 6140:1 6680:1 6869:1 6900:3 6962:1 6975:1 7136:1 7403:1 8236:1 8266:1 8367:1 8446:1 8616:1 8643:1 8657:2 9166:1 9167:1 9548:1 9964:1 9976:1 10095:1 10380:1 10408:1 10465:1 10486:1 10710:1 10738:1 10766:1 10861:1 11277:1 11509:2 11583:1 11853:1 11970:1 12812:2 12977:1 13519:1 13666:1 13848:1 14697:1 14768:1 14910:1 16039:1 16549:1 18458:1 19014:1 19512:1 19792:1 20086:1 21267:1 22052:1 22813:1 23371:1 23386:1 23783:1 24135:1 25594:2 26545:1 27489:1 27809:1 29897:1 32270:1 33081:1 35158:1 35793:1 38171:1 45778:1 45842:1 46737:1 49228:1 50885:1 50964:1 51110:1 52827:1 57713:1 63177:1 63571:1 64444:1 67976:1 68601:1 69325:1 88235:1 99439:1 99440:1 99441:2 99442:1 99443:1 99444:1 99445:1 #
0.00090013149338111523786731815732765 1:1 8:2 12:1 56:1 107:1 136:1 137:1 178:1 195:2 206:1 277:1 293:1 388:1 568:1 595:1 638:1 2871:1 3305:1 3343:1 3486:1 4299:1 5578:1 6371:1 7556:1 20072:1 51817:1 70965:1 #
0.0011745198814033554202129749910455 1:1 8:2 12:1 17:1 33:1 42:1 56:2 72:1 88:1 92:1 139:1 163:1 165:2 171:1 265:1 310:2 462:1 488:1 792:3 797:1 867:1 1090:1 1800:1 2093:1 2114:1 2126:1 2608:1 3064:1 3163:1 3244:1 3254:1 3576:1 4051:1 4568:1 5556:1 24424:1 50764:1 50765:1 #
0.0011745198814033554202129749910455 1:1 2:4 4:5 8:13 12:17 17:2 21:1 22:6 30:1 33:2 36:6 37:4 39:8 42:12 56:11 59:1 63:2 70:3 72:2 86:1 87:1 88:3 93:1 94:1 99:1 106:1 107:5 110:2 118:2 127:1 128:4 134:12 136:16 137:4 138:3 139:1 159:1 162:1 163:2 164:1 165:1 169:1 171:1 172:2 175:1 176:1 178:1 180:1 195:1 201:3 209:1 215:3 221:5 235:2 239:4 271:2 277:2 279:4 280:1 286:1 292:5 304:1 332:1 333:3 338:1 346:1 370:1 374:1 377:1 411:1 434:1 542:1 554:2 556:2 563:4 570:7 572:3 581:4 582:1 594:7 596:1 601:3 604:1 606:1 611:1 627:2 661:1 679:1 704:1 708:1 709:1 719:2 720:1 724:8 760:3 761:1 768:1 769:3 771:2 773:1 775:3 777:1 785:1 787:1 796:1 859:1 867:1 881:1 937:1 968:1 970:1 979:1 989:1 1022:3 1023:1 1045:1 1048:1 1093:1 1114:1 1144:5 1167:1 1173:1 1175:1 1187:1 1214:7 1244:1 1246:1 1313:1 1323:2 1336:1 1369:2 1380:1 1419:1 1461:1 1510:1 1569:1 1585:1 1594:1 1609:1 1620:1 1632:1 1652:3 1660:1 1676:1 1752:1 1820:1 1993:6 2040:1 2045:1 2056:2 2059:1 2124:1 2131:2 2134:1 2151:1 2158:1 2164:2 2172:1 2178:2 2187:1 2203:1 2216:1 2223:1 2229:1 2240:1 2258:1 2483:5 2517:1 2562:1 2566:1 2613:2 2628:5 2661:1 2664:2 2710:1 2772:1 2799:3 2809:3 2852:1 2871:1 2996:1 3010:1 3033:1 3142:1 3222:1 3244:1 3293:1 3304:1 3316:1 3378:1 3386:1 3390:1 3391:1 3392:1 3401:3 3407:4 3415:1 3422:1 3436:2 3462:1 3473:3 3475:1 3553:1 3636:1 3642:1 3656:1 3676:2 3893:1 4029:1 4118:1 4242:1 4253:1 4298:1 4483:1 4496:1 4549:1 4800:1 4959:1 5123:1 5307:1 5392:1 5476:1 5521:1 5780:2 5792:1 5872:3 5879:2 5911:1 5982:1 6508:1 6632:1 6667:1 6691:5 6887:1 7179:1 7238:1 7278:1 7515:1 7648:1 7653:2 7922:1 8100:5 8190:1 8316:1 8446:2 8528:1 8542:2 9172:1 9187:1 9190:2 9273:1 9485:3 10011:1 10514:1 10723:1 10795:1 10987:1 11388:1 11560:1 13050:1 13167:1 13226:2 13441:1 13554:1 13983:1 14673:1 16972:1 17743:1 18738:1 19249:1 19401:1 19770:1 20324:1 23625:1 26620:1 28436:1 29143:2 34113:1 34932:6 38589:1 45513:1 45736:1 61783:1 63433:16 63434:1 63435:1 63436:1 63437:1 63438:1 63439:1 63440:1 63441:1 63442:1 #
0.00035440030263712911070064781604572 1:1 4:1 8:8 12:1 14:1 17:2 22:4 30:1 37:2 39:1 42:1 46:1 52:1 60:1 64:3 72:4 79:1 107:4 110:3 111:1 125:2 129:1 159:1 163:1 165:1 187:2 234:1 270:1 279:1 292:1 310:2 358:1 359:1 372:1 407:1 488:1 539:1 542:1 583:1 603:1 605:1 682:1 729:1 760:1 770:1 780:1 785:1 915:1 921:1 930:1 1025:3 1038:1 1063:1 1093:1 1154:1 1416:1 1571:1 1581:1 1733:1 1782:3 1798:2 1811:1 2126:1 2701:1 2827:1 3129:1 3246:1 3450:1 3620:1 3800:1 3802:1 4362:1 4672:2 4903:1 5820:1 5831:1 6089:1 6140:1 6704:1 7631:2 7709:1 8046:1 10362:1 10861:1 21620:1 22083:1 22653:1 23630:2 23631:2 29279:1 41351:2 41352:2 41353:1 #
-0.0011745198814033554202129749910455 1:2 4:10 8:22 9:1 12:19 14:2 17:17 19:1 21:4 22:12 23:1 33:5 36:2 37:9 42:23 48:2 49:2 52:5 53:1 54:1 59:2 63:2 70:6 72:14 78:1 88:8 92:3 94:2 95:2 105:1 107:18 109:1 110:15 117:7 118:1 120:1 125:3 128:4 134:10 136:43 137:6 139:1 159:4 163:18 164:4 165:14 166:1 169:2 172:2 174:2 178:1 179:1 182:2 195:1 211:2 219:1 220:4 224:3 230:4 235:1 254:2 264:1 270:3 271:6 279:4 287:1 292:2 304:3 309:1 310:17 312:1 319:2 323:1 340:2 352:1 354:1 372:1 374:1 392:3 477:2 516:1 539:1 559:6 563:1 568:1 570:1 572:1 577:1 579:3 582:2 584:6 590:3 594:1 596:1 600:2 601:3 603:3 606:2 649:1 654:1 663:1 679:5 682:6 695:4 698:3 705:1 719:2 724:1 729:2 739:2 743:1 750:2 754:5 760:2 761:3 768:2 771:1 773:2 775:2 777:3 813:2 851:3 859:3 867:4 887:1 892:1 912:1 930:1 968:4 989:4 1001:3 1005:1 1015:2 1026:1 1032:1 1038:1 1063:2 1117:1 1154:1 1175:1 1187:2 1196:1 1252:1 1307:2 1314:1 1438:1 1461:4 1466:1 1476:1 1526:1 1541:1 1603:1 1632:1 1640:2 1654:3 1689:1 1692:2 1696:1 1698:3 1732:1 1752:4 1792:1 1809:1 1818:3 1892:1 1997:1 2005:1 2006:1 2034:1 2039:1 2053:1 2058:1 2065:1 2067:1 2078:1 2081:2 2125:6 2131:1 2178:1 2182:1 2200:2 2203:2 2220:3 2224:1 2245:1 2255:2 2488:4 2499:1 2507:2 2529:1 2583:1 2614:1 2638:1 2639:2 2664:1 2689:1 2731:1 2763:1 2884:1 2996:1 3064:3 3113:1 3129:8 3189:1 3316:1 3332:1 3392:3 3424:1 3435:1 3440:1 3576:1 3620:1 3802:1 3831:3 3844:1 3850:1 3905:1 4091:2 4103:6 4200:1 4228:1 4281:1 4362:2 4482:1 4558:1 5096:1 5142:1 5189:1 5194:2 5231:1 5307:1 5378:1 5428:1 5472:1 5523:2 5796:1 5882:3 5884:1 6017:1 6068:1 6339:1 6670:1 6957:2 7103:2 7215:1 7785:2 7822:1 7905:1 8106:1 10213:1 10328:1 10545:2 11103:1 11172:1 11286:1 11418:1 11621:1 12637:1 12668:2 13062:1 13385:1 13598:2 15613:3 16750:6 16933:3 17227:2 19107:1 20691:1 21141:1 24441:1 26100:6 28076:1 30873:3 37362:1 67651:1 85599:1 87736:1 87737:1 87738:1 87739:1 #
0.0011745198814033554202129749910455 1:1 2903:1 5880:1 19242:1 #
0.0011745198814033554202129749910455 1:2 42:1 184:1 219:1 220:1 221:1 224:1 233:1 256:1 277:2 341:1 346:1 368:2 563:1 646:1 1519:1 1771:1 1785:1 2114:1 4568:1 4788:1 6256:1 9129:1 9130:1 10491:1 49970:2 #
0.0011745198814033554202129749910455 1:1 591:1 2114:1 12807:1 37997:1 #
-0.0011745198814033554202129749910455 1:1 4:1 8:1 165:1 215:1 366:1 584:1 594:1 602:1 968:1 3676:1 4980:1 10003:1 14190:1 14191:1 14192:1 14193:1 #
-0.0011745198814033554202129749910455 1:1 4:1 8:18 12:2 17:4 18:1 20:1 21:2 22:1 33:5 37:2 42:4 56:1 72:2 88:2 99:2 107:2 111:2 112:2 128:1 136:2 163:1 166:1 175:2 211:1 252:1 277:1 316:1 509:1 513:4 539:1 594:1 600:1 627:1 695:1 708:1 724:1 730:1 736:1 771:1 867:1 885:1 1055:1 1114:1 1132:1 1166:2 1168:1 1201:2 1223:1 1224:1 1226:2 1232:2 1261:1 1277:1 1278:1 1289:1 1314:1 1458:1 1529:1 1566:1 1769:2 1835:1 1845:1 1871:1 1969:1 2065:1 2133:1 2170:3 2247:1 3008:1 3129:1 3293:1 3348:1 3364:1 3378:2 3758:1 3850:1 3939:1 4261:2 4438:1 4851:1 5077:1 5307:2 5543:1 5776:1 5783:1 5821:1 5872:2 6632:1 7537:1 8322:2 11897:1 12601:1 15165:1 15728:1 15944:1 16415:1 19072:1 23296:2 23908:1 24003:1 28591:1 35371:1 42764:1 48914:1 79763:1 80899:1 88173:1 88174:1 88175:1 88176:1 88177:1 88178:1 #
0.0001104349145479655632407639531678 1:1 4:4 8:5 12:9 17:1 21:3 22:4 33:4 36:1 37:1 42:7 65:1 70:1 72:4 76:5 88:1 92:1 110:3 111:1 112:1 128:2 134:1 136:3 139:1 155:1 163:2 164:1 165:2 172:1 230:4 235:1 265:2 270:1 271:3 277:1 291:1 300:1 304:3 310:9 333:1 488:3 542:1 556:2 570:3 572:1 582:1 587:1 603:2 612:1 692:1 698:3 705:1 706:2 739:1 761:1 769:1 773:1 775:1 807:1 818:1 867:1 879:1 892:2 894:1 915:1 929:1 961:1 968:1 989:1 1002:1 1004:1 1015:1 1063:1 1064:1 1099:1 1154:7 1170:1 1187:1 1263:1 1307:1 1415:1 1459:1 1481:2 1491:1 1600:1 1608:1 1612:1 1626:2 1842:1 1868:2 1877:2 2178:1 2564:1 2793:1 2806:2 2883:2 3088:1 3304:2 3354:1 3434:1 3436:2 4228:1 4291:1 4307:1 4340:1 5053:1 5505:2 5792:1 6333:1 6628:1 6811:1 8511:6 9611:1 10476:1 10904:1 11666:1 12640:1 12982:1 14382:1 15582:1 18614:1 #
-0.0011745198814033554202129749910455 1:1 8:1 12:1 70:2 72:1 107:1 136:1 137:1 698:1 754:1 761:1 1020:1 1108:1 1852:1 4277:1 5801:2 9997:1 13849:1 15866:1 17848:1 17849:1 20180:1 26991:1 32706:1 32877:1 35189:1 38544:1 42542:1 45020:1 50293:1 50294:1 50295:1 50296:1 50297:1 50298:1 50299:1 50300:1 50301:1 50302:1 #
0.0011745198814033554202129749910455 1:1 8:5 17:1 22:1 37:1 42:1 70:1 128:1 136:1 202:1 221:1 224:1 251:1 279:1 322:1 590:1 825:1 867:1 868:1 989:1 1404:1 1572:1 2058:1 2103:1 2147:1 2517:1 2624:1 3425:2 3426:1 3427:1 4786:1 6853:2 7632:1 8230:1 9641:1 40824:2 #
-0.0011745198814033554202129749910455 1:1 8:2 22:2 37:1 42:1 136:1 316:1 559:1 594:2 714:1 976:1 1416:1 1594:1 1937:1 3064:1 3293:2 4195:1 5307:1 5944:1 6035:1 6609:1 6850:1 12658:1 52959:1 63038:1 76842:1 80045:2 80046:1 #
0.0011745198814033554202129749910455 1:1 215:1 523:1 640:1 805:1 994:1 1143:1 2353:1 3075:1 3442:1 5186:1 6595:1 6703:1 7556:1 7567:1 9892:1 11390:1 11624:1 12751:1 14370:1 15802:1 21054:1 22837:1 23133:1 25599:1 27056:1 34924:1 35101:1 35232:1 36948:1 37208:1 40624:1 45653:1 46511:1 48019:1 52698:1 67017:1 73914:1 76801:1 76802:1 76803:1 76804:1 76805:1 76806:1 76807:1 76808:1 76809:1 #
-0.0011745198814033554202129749910455 1:1 4:4 12:4 17:2 33:1 42:5 80:1 88:1 109:2 111:1 125:1 128:1 139:1 163:1 178:1 179:1 181:1 193:3 209:1 211:1 288:1 313:2 327:4 364:2 556:1 570:2 577:1 588:1 601:1 679:1 710:1 724:2 733:1 736:5 760:3 771:1 817:1 912:1 940:1 994:2 1013:1 1028:1 1040:1 1041:2 1080:3 1132:2 1225:1 1232:6 1263:1 1269:1 1294:2 1314:1 1331:2 1369:1 1380:1 1434:2 1437:1 1449:1 1471:1 1476:1 1477:2 1509:1 1844:1 1856:2 1908:1 1931:1 1975:1 2002:2 2008:1 2158:2 2183:1 2483:3 2517:1 2541:1 2698:1 2718:1 2720:1 2809:1 2960:2 3189:1 3305:1 3362:1 3381:1 3465:2 3488:2 3632:1 3676:1 3808:1 4018:1 4054:1 4102:1 4227:1 4360:1 4422:1 4486:1 4906:1 5008:1 5168:1 5306:1 5381:1 5483:1 5727:1 5797:1 6495:2 7035:1 7424:1 7660:1 8415:1 9188:1 9491:1 9629:1 9749:1 9764:1 11363:1 11531:2 11890:1 12199:3 13274:1 15973:1 15975:1 16609:1 19463:1 20084:1 21440:1 23866:2 27598:1 29163:1 32657:1 47559:1 65913:1 65914:2 65915:1 #
-0.0011745198814033554202129749910455 1:1 41:1 42:3 56:3 77:1 105:1 134:1 165:1 563:2 771:1 775:1 796:1 817:1 968:1 1038:2 1161:1 1176:1 1908:1 1914:1 2117:1 2661:1 2867:1 2900:1 5735:1 5836:2 5840:2 6542:2 6543:1 6544:1 #
-0.00018031038987632776876557372247589 1:1 4:1 8:1 12:10 18:1 19:1 20:1 37:3 39:2 42:4 72:1 88:1 107:7 110:1 134:2 136:2 138:2 159:1 161:1 165:2 196:1 221:1 258:1 271:1 279:2 298:2 310:9 390:1 436:1 542:1 570:2 572:1 594:2 600:1 687:5 695:1 729:1 760:1 769:1 775:2 787:1 813:1 867:1 915:1 930:1 984:1 985:1 1013:1 1104:1 1255:1 1643:1 1723:1 1770:3 1908:2 1980:1 2058:2 2229:1 2252:1 2611:1 2638:1 2717:1 2816:1 2903:1 2905:1 3008:1 3064:1 3255:1 3293:2 3304:1 3434:1 3874:1 4374:1 4880:1 5489:2 5834:1 5864:1 7664:1 7751:1 8677:1 9501:6 9503:4 10378:2 10622:1 12204:1 12348:1 15309:1 19173:3 19488:1 32118:1 71745:1 73148:3 73149:2 88418:1 88419:2 #
-0.0011745198814033554202129749910455 1:1 4:1 8:4 12:4 22:3 36:1 37:1 42:6 48:1 77:1 92:1 94:1 107:1 116:1 117:1 120:1 128:4 136:1 165:2 171:1 195:1 202:1 235:1 251:1 270:1 277:20 279:1 292:1 298:1 304:3 310:6 312:1 372:1 423:1 467:1 508:1 516:1 568:1 584:1 590:1 614:2 639:2 653:1 661:1 684:1 698:2 761:2 775:1 810:1 813:1 867:1 941:1 991:1 1093:1 1267:1 1277:1 1280:2 1313:3 1351:3 1380:1 1386:1 1486:1 1546:1 1550:1 1594:1 1689:1 1798:1 1818:1 1860:1 1907:1 2010:1 2065:1 2078:1 2091:1 2133:3 2164:1 2216:1 2229:1 2608:1 2661:1 2901:2 2903:1 2907:1 3213:2 3216:1 3252:2 3293:1 3392:1 3429:1 3610:1 3646:1 3905:1 3941:1 4881:1 6887:1 7346:3 8446:1 9973:1 10998:1 11099:1 11107:1 12246:2 13850:1 14413:1 16110:1 16583:1 22008:1 38170:1 40589:1 43721:1 45578:1 45579:1 58072:1 58375:1 97132:1 #
-0.00057597316916827825863250955862327 1:1 4:2 8:2 12:1 22:1 36:1 39:1 42:2 88:1 134:1 136:2 139:1 309:1 358:1 467:1 584:1 602:1 725:1 1416:1 1610:1 1689:1 1723:1 1894:1 1907:1 2319:1 2320:1 2325:1 2335:1 2342:1 2346:1 2351:1 2362:1 2363:1 2370:1 2374:1 2378:1 2380:2 2388:1 2392:1 2394:1 2398:1 2405:1 2413:1 2422:1 2423:1 2425:1 2432:1 2433:1 2443:1 2448:2 2457:1 2461:1 2471:1 2472:1 2483:1 2485:1 2732:1 3207:1 3852:1 4274:1 4330:1 5657:1 6568:1 9659:1 10958:2 16311:1 20507:1 20516:1 20521:1 20522:1 20525:1 20531:1 20534:1 20535:1 20565:1 20573:1 20580:2 20586:1 20587:1 20588:2 20592:1 20595:1 20596:1 20597:1 20598:1 20600:1 20607:1 20611:1 20614:1 20616:1 20620:1 20624:1 20625:1 20632:1 20634:1 24462:1 24463:1 24482:1 24498:1 24500:1 24503:2 24506:1 24528:1 24534:1 24536:1 24544:1 24546:1 24548:1 24556:1 24561:1 24564:1 24572:1 34664:1 38678:1 44112:1 55807:1 59078:1 59089:1 59093:1 59100:1 59105:1 59108:1 59111:1 59114:1 59128:1 59130:1 59145:1 59157:1 59162:1 59168:1 59171:1 64389:1 75711:3 75713:1 75720:1 75731:1 75758:1 75759:1 75760:1 75766:1 78489:1 93070:1 93076:1 93097:1 93099:1 93101:1 93113:1 93116:1 93121:1 93750:1 93751:1 93752:1 93753:1 93754:1 93755:1 93756:1 93757:1 93758:1 93759:1 93760:1 93761:1 93762:1 93763:1 93764:1 93765:1 93766:2 93767:1 93768:1 93769:1 93770:1 93771:1 93772:2 93773:1 93774:1 93775:1 93776:1 93777:1 93778:2 93779:1 93780:1 93781:1 93782:1 93783:1 93784:1 93785:1 93786:1 93787:1 #
-0.0011745198814033554202129749910455 1:1 4:1 8:4 33:1 53:1 56:1 72:1 118:1 137:1 165:1 263:1 358:1 761:1 867:1 1243:1 1448:1 1449:1 1453:1 1617:1 2008:1 2058:1 2613:1 3074:1 3676:2 3761:1 3859:1 5840:1 5854:1 8099:1 11265:1 12029:1 27980:1 30319:1 53155:1 89575:1 #
-0.0011745198814033554202129749910455 1:1 22:1 42:1 57:1 136:1 302:1 333:1 739:1 761:1 810:1 2588:1 4824:1 5060:1 7556:1 11159:1 17909:1 18742:1 21775:1 22094:1 48313:1 97443:1 102073:1 102074:1 102075:1 102076:1 102077:1 102078:1 102079:1 102080:1 102081:1 102082:1 #
0.0011745198814033554202129749910455 1:1 4:1 8:3 14:1 17:2 21:1 22:1 30:1 37:2 39:2 41:10 42:4 48:1 55:1 56:2 63:2 65:1 70:1 72:4 79:1 88:8 107:3 110:1 120:1 125:1 134:8 136:4 137:1 154:1 163:2 164:1 175:1 176:1 178:2 179:1 194:1 221:1 277:1 293:1 296:1 298:1 555:1 572:1 593:1 594:3 601:2 649:1 661:1 671:1 708:1 716:1 867:2 930:1 937:1 946:1 968:1 1001:1 1023:3 1032:1 1088:1 1318:1 1604:1 1612:1 1751:1 1798:1 2126:1 2167:1 2254:1 2271:1 2276:1 2483:1 2502:1 2574:1 2711:1 2736:1 2809:1 2871:2 2898:1 2986:3 3189:1 3255:1 3293:3 3378:1 3387:1 3407:2 3581:1 3676:1 3727:1 3874:1 3944:1 4113:2 4177:1 4260:2 4549:1 4836:1 5713:1 5859:1 6090:2 7103:1 7210:1 7702:1 9112:1 9337:1 10149:1 10432:1 10433:1 10434:1 10733:1 11123:1 13446:1 13849:1 13917:1 20056:1 28000:1 37035:1 53133:10 53135:1 53136:1 53139:1 77014:2 77015:1 #
0.00068783750358260005268451475757274 1:1 4:11 8:30 12:14 14:3 17:6 21:4 22:16 30:1 32:1 33:9 36:3 37:4 42:28 48:1 49:2 54:3 56:7 59:1 60:1 63:3 66:1 72:8 78:1 80:1 88:5 94:4 99:2 107:5 110:10 111:2 118:2 122:1 125:2 128:6 134:2 137:2 138:1 147:2 154:2 156:1 157:1 159:1 164:1 165:8 166:1 168:1 172:1 175:2 176:2 177:1 179:2 182:1 193:1 202:1 210:1 215:1 220:2 221:4 249:1 263:1 271:3 272:1 277:6 291:1 292:2 331:1 332:1 338:2 343:1 344:1 373:3 389:1 513:1 516:3 539:2 543:3 563:6 570:5 594:7 595:1 601:1 619:1 636:4 640:1 650:1 651:4 652:1 679:5 682:1 695:1 698:1 705:2 708:2 719:1 724:4 748:1 760:2 771:2 773:1 785:1 801:1 805:2 813:4 825:1 881:1 890:1 896:1 930:2 937:1 939:1 943:2 959:1 977:1 992:1 1018:1 1023:4 1055:1 1058:1 1088:1 1114:1 1127:6 1135:1 1142:1 1147:3 1154:1 1203:2 1259:1 1260:1 1283:1 1290:2 1304:1 1305:1 1306:1 1323:8 1334:1 1369:1 1421:1 1454:1 1461:1 1471:1 1510:3 1526:1 1531:1 1567:4 1577:1 1629:1 1645:1 1654:1 1670:1 1696:1 1699:1 1722:6 1723:2 1806:1 1818:2 1840:1 1844:1 1845:2 1854:1 1863:1 1900:1 1940:1 1969:2 1988:1 1993:1 2022:1 2053:2 2056:3 2057:1 2061:1 2070:2 2092:11 2186:1 2194:1 2200:1 2209:1 2223:1 2224:1 2225:1 2226:1 2227:1 2229:2 2254:1 2490:1 2516:1 2517:6 2531:1 2551:1 2611:2 2711:1 2717:2 2731:2 2819:3 2962:1 2969:1 2990:1 3069:1 3075:2 3114:1 3129:1 3255:3 3293:6 3295:1 3345:1 3378:1 3383:2 3390:1 3391:1 3393:1 3402:2 3407:1 3468:2 3488:1 3492:1 3509:1 3517:3 3557:1 3559:3 3562:1 3565:1 3592:1 3601:1 3649:1 3664:4 3665:1 3666:1 3667:1 3668:3 3669:1 3670:1 3671:1 3672:1 3673:1 3674:1 3675:3 3676:1 3677:1 3751:5 3921:1 4112:1 4216:1 4217:5 4337:1 4364:1 4447:1 4483:1 5155:1 5290:3 5522:5 5598:1 5743:1 5805:1 5856:1 5872:1 6035:3 6495:3 6517:1 6856:1 6861:1 7215:3 7235:2 7342:1 7343:1 7515:1 7581:4 7655:1 8252:1 8473:1 8681:1 9044:1 9111:1 9538:6 9550:2 9713:1 10262:1 10351:1 11288:1 11514:1 11872:1 12070:1 12072:1 13062:1 13207:1 13872:3 14005:1 15279:2 15365:1 15504:2 15564:1 16307:1 18646:1 20085:1 20861:1 23403:1 28955:1 30739:4 30785:3 30786:2 34187:2 37397:1 41296:1 47168:1 48532:1 57704:1 62012:1 64170:4 64171:2 64172:2 64173:1 64174:1 64175:1 64176:1 64177:1 64178:1 64179:2 64180:4 64181:1 64182:3 64183:1 64184:2 64185:2 64186:1 64187:1 64188:1 64189:1 #
0.00018887036165734309690021619498879 1:1 4:18 8:25 12:8 14:6 17:7 22:7 30:1 33:3 37:1 42:16 48:1 51:2 54:2 56:1 63:6 65:2 70:1 86:3 88:3 103:1 105:2 107:1 110:1 111:1 112:3 118:2 125:2 134:1 136:3 137:2 163:2 173:4 175:8 178:2 182:3 210:1 270:1 271:8 277:3 296:2 344:1 352:1 383:1 516:2 585:2 590:1 606:1 644:1 661:2 679:1 695:6 698:1 705:2 724:1 736:1 751:1 773:3 785:2 825:1 867:3 881:1 914:2 1001:1 1028:1 1032:1 1040:1 1081:1 1083:1 1088:1 1093:1 1113:1 1246:1 1285:3 1296:1 1336:2 1356:3 1397:3 1404:1 1412:7 1426:1 1438:2 1448:1 1449:3 1453:1 1562:1 1579:1 1605:1 1617:3 1639:1 1654:1 1798:4 1846:1 1852:2 1884:2 1902:5 2003:1 2008:3 2052:2 2060:4 2070:3 2078:1 2089:1 2090:2 2160:1 2204:2 2280:1 2532:3 2611:1 2752:1 2762:1 2851:1 2964:1 2967:1 3033:2 3114:1 3317:1 3422:1 3539:1 3551:1 3723:1 3775:2 4115:1 4228:1 4244:1 4260:3 4291:1 4362:1 4890:1 5421:2 5517:1 5518:1 5803:1 5828:3 5866:1 6010:1 6290:1 6629:2 6847:2 7035:5 7071:1 9111:2 9112:1 10366:1 10987:1 11307:2 13681:1 15794:1 23188:1 28731:1 31041:1 34413:1 35919:1 40652:4 41163:1 #
-0.00074796568693649191379019258718586 1:1 4:1 8:1 12:5 22:2 33:1 36:5 37:1 39:1 42:12 56:3 65:2 70:2 72:1 74:1 88:1 94:2 107:3 110:8 118:2 120:1 125:3 128:1 136:10 159:2 164:1 165:4 178:1 215:1 235:1 271:4 277:3 292:2 304:2 333:1 372:1 563:1 572:1 594:1 603:2 663:1 684:2 698:1 706:1 725:1 739:1 760:1 761:1 775:3 867:2 882:1 887:1 892:1 941:1 964:1 968:1 989:1 1065:1 1128:1 1300:2 1416:1 1420:1 1451:1 1594:2 1610:1 1640:2 1692:5 1723:4 1892:1 1907:1 2065:1 2081:1 2133:1 2141:1 2517:1 2525:1 2586:1 2752:2 3064:1 3129:3 3293:1 3787:1 4274:1 5313:1 5522:1 7092:1 7346:1 7694:1 8172:2 8371:1 9462:1 9573:1 10266:1 10378:1 10385:1 11362:1 11771:1 12086:1 12871:1 13450:1 15825:1 18733:1 27646:1 30339:2 33567:1 37992:1 60338:1 60339:1 60340:1 60341:1 60342:1 60343:1 60344:1 60345:1 60346:1 60347:1 60348:1 60349:1 60350:1 #
0.0011745198814033554202129749910455 1:1 86:1 594:1 639:1 724:1 938:2 1008:1 1009:1 1157:1 4912:1 5963:1 6274:2 6279:1 20719:1 47497:1 47498:1 #
-0.0011745198814033554202129749910455 1:2 4:5 8:4 12:2 17:1 22:2 36:1 37:1 39:1 42:6 54:1 56:1 59:1 70:2 72:3 88:1 92:1 105:1 107:4 108:1 110:2 116:1 125:1 128:1 134:3 136:6 137:1 163:3 164:1 172:1 175:1 176:1 178:1 232:1 266:1 270:1 271:5 317:1 372:1 516:1 542:1 572:1 584:1 590:1 594:1 602:1 695:1 754:1 773:1 775:1 807:1 851:1 867:1 870:1 946:1 1015:1 1081:1 1135:1 1147:4 1173:1 1175:2 1241:1 1314:1 1386:1 1418:1 1449:1 1640:1 1811:1 1842:1 1876:1 1889:1 1890:1 2010:1 2079:3 2093:1 2261:4 2483:1 2756:1 2796:1 2988:1 3322:1 3392:1 3584:1 4274:1 4290:1 4291:1 5379:1 5517:1 5820:1 6604:1 7035:1 7092:1 7176:1 11160:1 13527:1 14665:1 26609:1 37364:1 37365:1 #
-0.00098007485431346225319970688616422 1:1 8:1 22:3 33:1 37:1 39:1 42:1 72:1 136:1 277:1 304:1 358:1 577:1 614:1 639:1 810:1 1023:1 2574:1 2608:1 2910:1 3676:2 4228:1 4457:1 4611:1 5447:1 5457:1 5472:1 5522:1 5657:1 5705:1 5711:1 5712:1 6308:1 6423:1 7801:1 8542:1 9325:1 11809:1 12658:1 13385:1 16732:1 19027:1 20345:1 41777:1 46411:1 49711:1 51248:1 63348:1 66383:1 78731:1 88589:1 88590:1 88591:1 88592:1 88593:1 88594:1 88595:1 88596:1 88597:1 88598:1 88599:1 #
-0.0011745198814033554202129749910455 1:1 12:1 221:1 596:1 778:1 5703:2 7134:1 7685:1 10480:4 21419:2 21420:2 23522:1 26661:1 37451:1 46722:1 50704:1 73773:1 88615:1 88616:1 88617:1 #
-0.0011745198814033554202129749910455 1:1 4:2 8:4 12:2 22:2 42:2 63:3 70:1 78:1 94:1 105:1 107:4 110:2 125:3 128:1 134:3 136:3 217:1 310:1 312:2 316:1 333:1 370:1 644:1 695:1 724:3 771:2 775:3 777:2 789:2 896:1 968:1 976:1 1027:1 1114:1 1300:1 1344:1 1420:1 1451:2 1922:1 2587:1 2654:1 2661:1 2752:3 3024:1 3100:1 3391:1 4375:1 4376:1 4583:1 5060:3 5800:1 5801:1 5834:2 7155:1 8445:1 9573:1 9617:1 9737:1 9972:1 11362:1 20701:1 22813:1 26141:1 32435:1 32498:1 33386:1 34145:1 34961:1 34962:1 34963:1 34964:1 34965:1 34966:1 34967:1 34968:1 34969:1 34970:1 34971:1 34972:1 34973:1 #
-0.0011745198814033554202129749910455 1:1 8:1 14:1 63:1 99:1 107:3 125:1 136:2 159:1 310:1 318:2 415:1 559:1 568:1 570:2 600:1 695:1 703:1 704:1 705:1 739:2 761:2 969:1 1195:1 1300:1 1313:1 2127:1 2133:1 2736:1 3252:1 3293:1 4091:1 4727:1 5961:1 6887:2 9469:1 22238:1 23301:1 51596:1 58319:1 58322:1 58335:1 90474:1 90475:1 90476:1 #
-0.0011745198814033554202129749910455 1:1 8:4 37:1 42:5 54:3 56:1 63:1 70:1 72:1 88:2 107:1 110:1 134:1 135:1 136:3 137:1 178:2 202:2 220:2 221:1 235:1 271:1 310:2 319:1 568:2 570:1 594:1 682:1 687:1 761:1 787:1 805:1 813:1 867:2 968:1 989:1 1099:1 1346:1 1426:1 1513:1 1632:1 1722:1 1798:2 2699:1 2981:1 3340:1 3429:1 3464:3 5152:1 5154:1 5399:2 5585:1 6514:1 9580:1 13993:1 28629:1 30771:1 35398:1 35399:2 36232:1 79317:2 #
-0.0011745198814033554202129749910455 1:1 8:3 37:1 42:5 54:2 56:1 63:1 70:1 72:1 88:2 107:1 110:1 134:2 135:1 136:3 137:1 165:1 178:2 185:2 220:2 221:1 235:1 271:2 277:1 310:1 319:1 513:1 568:1 570:1 594:1 682:1 687:1 805:1 813:1 867:1 968:1 989:1 1426:1 1513:1 1632:1 1722:1 1798:2 2699:1 2981:1 3340:1 3464:2 4283:1 5152:1 5154:1 5399:1 5585:1 6098:1 6349:1 14697:1 35398:1 35399:2 97625:1 97626:1 97627:1 #
0.0011745198814033554202129749910455 1:1 10:1 12:1 17:1 22:1 30:1 42:5 72:1 136:1 172:1 239:1 279:3 310:2 333:2 357:1 577:2 584:1 590:1 682:1 774:1 1008:1 1023:1 1050:2 1416:1 1594:2 2153:1 2724:1 2799:1 2861:1 3809:1 7176:1 7951:1 8251:1 11742:1 11981:1 91366:1 #
-0.0011745198814033554202129749910455 1:1 8:5 12:4 22:4 27:1 33:1 36:1 37:1 42:1 52:1 56:1 72:2 88:1 105:1 107:4 110:1 125:1 130:1 136:4 157:2 159:1 165:1 171:1 215:1 277:2 279:1 291:1 304:1 310:7 369:1 370:1 374:1 513:2 553:1 554:1 563:1 579:2 600:1 687:1 704:2 705:1 706:1 725:1 747:1 761:1 769:1 771:1 846:1 867:1 887:1 984:3 1006:1 1032:1 1040:1 1083:1 1156:1 1167:1 1189:1 1202:2 1244:2 1246:1 1379:1 1385:1 1397:1 1420:1 1550:1 1683:1 1704:1 1768:1 2536:1 2613:1 2711:1 2800:1 3694:1 3827:1 4221:1 5722:1 6188:2 6639:1 6956:1 9635:1 19538:1 26139:1 28841:1 32264:1 51157:1 87344:1 87345:2 87346:1 #
-0.0011745198814033554202129749910455 1:1 8:2 12:1 22:1 42:1 63:1 70:1 88:1 107:1 118:1 136:3 178:1 220:1 221:1 304:1 568:1 594:2 776:1 867:1 968:1 1760:1 1800:1 1907:2 2081:1 2483:1 2752:1 3293:2 3332:1 5153:1 5187:1 6035:2 6609:1 7782:1 11834:1 12666:1 21417:1 26080:1 26222:1 31394:1 42452:1 42455:2 61078:2 72172:1 76826:1 77032:1 77033:1 77034:1 77035:1 77036:1 77037:1 77038:1 77039:1 77040:1 77041:1 77042:1 77043:1 77044:1 #
0.0011745198814033554202129749910455 1:1 4:1 8:3 12:2 14:1 30:1 33:1 36:1 39:1 42:1 78:1 88:2 128:1 159:1 163:1 230:2 271:2 306:1 310:1 312:1 327:1 333:1 554:1 570:1 572:1 603:1 627:1 739:1 771:1 785:1 952:1 1002:2 1471:1 2509:1 2583:1 3114:1 3395:1 3893:1 4244:1 7165:1 7451:1 16605:1 #
0.0011745198814033554202129749910455 1:1 2:1 4:10 8:11 9:2 12:7 17:3 21:2 22:6 33:2 36:4 37:1 39:3 42:15 54:1 56:3 63:2 64:1 72:6 75:1 79:1 88:1 94:1 95:1 99:1 105:1 107:6 108:1 118:3 119:2 120:1 125:2 128:4 134:11 136:9 137:2 139:2 154:1 159:2 163:1 164:1 182:1 199:1 220:1 235:1 267:1 271:1 277:1 292:1 293:1 302:1 306:1 309:1 333:1 340:2 352:1 370:1 513:2 516:2 563:2 570:2 571:1 572:1 577:1 579:1 594:15 604:2 639:1 640:3 659:1 760:2 768:1 771:1 775:1 777:1 892:1 894:1 930:1 941:1 966:1 990:5 1001:1 1015:2 1022:1 1023:6 1284:1 1369:1 1419:1 1453:2 1490:2 1510:1 1514:1 1673:1 1689:1 1692:1 1906:1 1908:1 2081:1 2126:1 2164:3 2229:1 2283:1 2507:1 2517:6 2611:1 2613:1 2626:1 2628:3 2661:4 2739:1 2798:2 2809:1 2819:1 2994:1 3033:1 3075:2 3189:1 3255:1 3293:6 3345:1 3404:1 3512:1 3616:1 3632:1 3642:1 3647:2 3666:1 3676:1 3737:1 3820:1 4244:3 4274:1 4291:1 4496:1 4959:1 5055:1 5273:1 5295:1 5522:2 5588:2 5781:2 6249:1 6308:3 6345:3 6359:1 6601:1 7624:1 7626:1 7951:1 8479:1 8541:1 8551:1 9728:1 10266:1 10918:1 11160:1 12886:1 12897:2 13150:1 15231:1 15238:1 15414:1 16626:1 18458:1 19407:1 19444:1 19770:1 28629:2 30815:1 32044:1 35996:2 53025:2 55050:1 58891:16 58892:1 58893:1 58894:1 #
0.0011745198814033554202129749910455 1:1 2:1 1639:1 4931:1 6983:1 #
-0.0011745198814033554202129749910455 1:1 4:1 8:1 17:1 22:3 42:2 63:1 70:1 80:1 88:1 105:1 107:2 110:1 136:4 137:1 159:1 169:1 170:1 251:1 304:1 310:1 584:1 739:1 761:1 773:1 867:1 894:1 941:1 958:1 984:1 1022:1 1400:1 1415:1 1416:1 1550:1 1594:1 1683:1 1792:1 1800:1 2065:1 2184:1 2517:1 2718:1 3064:1 3293:1 4199:1 4498:1 5661:1 6035:1 9056:1 13929:1 19511:1 72975:1 72976:1 72977:1 72978:1 72979:1 72980:1 72981:1 72982:1 #
-0.0011745198814033554202129749910455 1:1 42:1 63:1 70:1 72:1 93:1 107:1 136:2 159:1 172:1 215:1 267:1 286:2 513:5 549:1 551:1 554:1 651:1 652:1 653:1 773:1 775:1 1267:2 1461:1 1692:1 2091:1 2108:1 2711:1 7235:1 7243:1 7675:1 10456:1 11642:2 27417:1 28144:1 38189:2 47964:1 73708:1 73709:2 73710:1 73711:1 73712:1 73713:1 #
-0.0011745198814033554202129749910455 1:1 4:1 8:2 12:2 42:4 77:1 120:1 136:5 137:1 163:1 165:1 211:1 221:2 277:1 279:3 292:2 310:4 369:1 372:1 572:2 584:1 594:1 704:1 705:1 712:1 748:1 761:1 775:1 817:1 1023:1 1243:1 1463:1 1692:1 1814:1 2255:1 2283:1 2285:2 2613:1 2722:2 2731:1 3100:1 3160:1 3293:1 3814:1 4184:1 5059:1 7744:1 8108:1 10516:1 48313:1 57205:1 74010:1 97560:1 104655:2 104656:1 104657:1 #
-0.0011745198814033554202129749910455 1:1 4:1 8:2 42:1 54:1 56:1 107:1 211:1 219:1 220:1 221:2 286:1 296:1 366:2 369:1 571:1 596:1 606:1 646:1 652:2 687:3 692:1 709:1 805:2 1023:1 1167:1 1804:1 1829:1 1844:1 1960:1 2220:1 2951:1 3464:1 3474:1 3716:1 4283:2 4538:1 4878:1 6514:2 6516:1 6528:1 6529:1 10007:1 10042:1 11397:1 11667:4 13002:2 13007:1 15239:4 19131:1 19649:3 26957:1 102728:3 102729:4 102730:1 #
0.00046301590872752259025330046071645 1:1 8:1 12:1 22:1 36:1 70:1 88:1 94:1 107:2 111:1 125:1 128:1 136:2 137:1 165:1 230:1 234:1 304:1 310:6 331:1 572:1 591:1 600:2 703:1 736:1 760:1 908:1 989:1 1230:1 1416:1 1449:1 1714:1 1792:1 2531:1 2557:1 2967:1 3304:1 3468:1 5389:1 8486:1 9167:1 10155:1 19552:1 46131:1 46132:1 #
0.0011745198814033554202129749910455 1:1 8:4 42:5 43:1 49:1 56:2 60:1 71:1 86:1 87:1 107:4 129:1 134:1 137:1 165:2 179:1 221:1 271:3 277:1 543:1 570:1 581:1 679:1 851:1 867:1 989:1 1019:1 1243:1 1582:1 1662:1 1845:1 2201:1 2203:1 2261:1 2583:1 2738:1 2752:1 3767:1 5556:1 5872:3 6854:1 7686:3 12295:1 13624:1 16593:4 23934:3 27072:1 34462:1 45555:1 88687:1 #
0.0011745198814033554202129749910455 1:2 4:5 8:9 12:1 14:1 17:2 22:1 33:3 36:3 37:3 39:2 41:2 42:14 47:1 54:7 65:2 70:2 72:1 74:2 88:3 93:1 100:1 107:6 110:1 117:1 118:2 125:3 128:3 134:13 136:18 137:2 138:1 139:1 150:1 153:1 154:2 163:5 165:1 168:1 169:1 178:1 182:2 195:1 215:1 220:3 221:4 258:4 263:1 267:1 270:1 271:4 277:2 278:1 292:1 298:1 304:1 310:2 312:1 327:1 333:2 358:1 359:1 380:2 516:3 539:1 594:4 606:1 635:2 636:1 640:1 644:1 651:5 652:1 671:1 705:1 724:4 767:1 771:1 773:1 777:1 785:2 792:1 799:5 849:1 867:2 937:1 989:1 1000:1 1006:1 1015:1 1023:2 1032:1 1088:1 1093:1 1113:1 1114:1 1118:1 1127:1 1187:1 1211:1 1243:2 1244:1 1289:2 1299:1 1330:1 1369:1 1510:2 1561:2 1699:1 1760:6 1826:1 1907:1 2022:1 2221:1 2507:1 2517:2 2613:2 2628:1 2689:2 2736:1 2752:1 2804:1 2809:1 2865:1 2871:1 2917:1 2964:1 3069:1 3189:2 3222:1 3244:1 3293:2 3378:2 3390:1 3422:1 3517:3 3610:1 3616:1 3634:3 3676:1 4290:1 4883:2 5194:1 5751:5 5803:1 6010:2 6227:1 6515:2 6640:1 7010:1 7354:1 7451:1 9466:1 9547:2 9592:1 9788:1 11221:1 13909:1 18491:1 18574:1 26298:13 50523:1 78544:2 #
0.0011745198814033554202129749910455 1:1 4:3 8:1 12:1 21:1 22:4 33:1 39:2 42:4 54:1 86:1 88:2 107:2 111:1 125:1 136:1 150:1 175:1 195:1 210:1 225:1 230:2 239:4 277:1 293:1 344:2 372:1 513:144 516:1 542:1 543:1 563:2 577:1 594:2 601:3 682:1 867:1 880:1 881:1 1027:1 1135:1 1257:1 1395:1 1461:2 1616:1 1677:1 1736:1 1902:2 2192:1 2220:1 2517:1 2809:1 3116:1 3293:1 3381:1 3403:1 3422:2 3488:1 3522:1 3676:1 3729:1 4338:1 5780:1 5804:1 5821:4 5938:1 6035:1 7922:1 9183:1 9184:1 9185:1 9190:1 9192:1 9209:1 12161:1 12247:1 14673:1 16590:1 35575:1 35577:1 97069:1 #
-0.0011745198814033554202129749910455 1:1 4:2 8:3 12:2 22:1 29:1 37:2 42:3 60:1 70:1 72:1 125:1 134:1 136:4 165:1 235:1 271:3 277:1 304:1 370:1 594:1 739:1 761:1 777:1 825:1 989:1 1201:1 1241:1 1385:1 1386:1 1454:1 2030:1 2224:1 2517:1 2989:1 3004:1 3152:1 3293:1 4091:1 5298:1 6017:1 12777:1 15503:1 15505:1 15506:1 15507:1 21889:1 30555:1 35154:1 59835:1 63393:1 64082:1 #
0.0011745198814033554202129749910455 1:1 136:1 293:1 344:1 1768:1 1907:1 2126:1 2192:1 4788:1 #
-0.0011745198814033554202129749910455 1:1 8:1 134:1 168:1 178:1 185:1 215:3 2731:1 2969:1 #
0.0009027800302917910477487617448844 1:1 2:1 4:25 8:18 9:2 12:37 14:2 17:24 18:3 19:2 20:1 21:5 22:12 27:1 33:2 36:24 37:11 39:30 42:17 43:1 49:4 52:3 56:4 60:1 63:3 64:1 65:9 67:2 70:1 72:1 86:5 87:3 88:4 92:1 95:1 99:3 101:1 105:1 107:5 110:10 117:2 118:3 125:7 128:6 129:1 137:3 138:1 159:2 162:1 163:4 164:1 165:4 175:1 181:2 182:1 192:1 215:2 221:1 228:2 239:1 254:1 266:1 271:1 277:5 284:1 292:1 304:1 310:1 317:1 318:3 319:5 333:2 338:1 344:1 369:1 373:1 374:3 383:1 532:1 539:2 543:1 544:2 548:1 549:1 554:2 567:3 570:4 586:3 588:1 679:1 690:2 692:1 695:3 704:4 705:3 708:2 724:1 729:1 730:1 731:5 736:3 738:1 751:3 760:2 764:1 771:1 777:1 785:2 793:1 813:1 851:3 859:3 879:4 915:1 921:1 930:3 941:1 949:3 950:3 967:1 987:2 989:1 994:1 995:1 1005:1 1008:2 1009:1 1015:1 1029:1 1031:1 1035:1 1047:1 1048:1 1059:1 1078:3 1081:2 1083:3 1097:1 1100:1 1106:2 1118:1 1122:2 1144:1 1147:1 1148:2 1150:1 1155:2 1156:1 1157:5 1163:2 1167:1 1169:2 1171:8 1187:1 1192:1 1201:1 1240:1 1243:1 1246:2 1248:1 1251:1 1260:1 1263:2 1267:1 1274:1 1278:1 1292:1 1299:1 1307:1 1309:23 1310:1 1314:1 1320:1 1341:1 1355:2 1391:2 1405:1 1407:1 1418:2 1426:1 1431:1 1437:1 1438:1 1447:1 1451:1 1454:1 1469:1 1470:2 1471:6 1472:4 1474:1 1477:1 1479:1 1485:3 1487:1 1497:1 1504:1 1506:1 1538:2 1594:1 1600:1 1605:1 1607:2 1608:1 1609:2 1619:2 1654:5 1676:2 1683:1 1685:1 1686:1 1689:1 1748:1 1762:1 1792:1 1798:1 1811:1 1840:1 1843:1 1845:2 1856:1 1923:1 1931:3 1932:1 1997:1 2003:1 2034:2 2039:1 2075:1 2081:1 2090:1 2092:1 2108:1 2133:2 2134:1 2147:1 2188:1 2224:1 2227:1 2271:1 2489:2 2664:1 2689:1 2723:1 2734:2 2738:1 2785:2 2878:2 2980:1 2985:1 3003:1 3083:1 3084:1 3137:1 3173:2 3248:1 3253:1 3255:1 3277:1 3286:2 3317:1 3373:1 3387:1 3436:3 3444:2 3564:1 3590:1 3599:2 3616:1 3906:3 4051:2 4054:2 4077:1 4103:2 4112:2 4233:2 4240:1 4261:1 4298:1 4360:2 4408:3 4409:3 4505:1 4516:1 4538:1 4642:3 4878:1 4976:1 4979:1 5114:1 5241:1 5268:1 5284:3 5374:1 5379:2 5418:1 5498:1 5786:1 5788:1 5789:1 5803:1 5884:1 6321:1 6339:1 6598:1 6608:1 6847:1 7092:1 7210:1 7344:1 7380:1 7450:1 7468:1 7482:1 7483:1 7484:1 7507:1 7551:3 8210:1 8236:1 8379:1 8416:1 8490:1 9337:1 9340:1 9708:1 10020:1 10022:1 10081:1 10366:1 10757:1 10801:1 10804:1 10987:1 11130:1 11239:1 11508:1 11965:1 12534:1 12918:1 13147:1 13154:1 13208:1 13869:1 13909:1 14862:1 15199:1 15875:1 15911:1 16111:1 18366:1 19404:1 20922:1 21949:1 24040:1 24297:1 31726:1 34243:1 34262:1 35583:1 78467:1 #
0.0011745198814033554202129749910455 1:1 4:3 8:6 9:1 12:7 14:1 17:3 21:1 22:5 33:1 36:1 37:1 42:2 56:1 72:1 74:1 88:2 92:1 110:4 118:2 134:1 136:2 161:1 221:2 235:2 260:1 277:2 279:1 310:6 313:1 323:1 357:3 358:1 365:2 370:1 412:1 541:1 692:2 769:1 773:1 785:2 813:1 825:1 867:1 944:1 951:2 994:2 1006:1 1015:3 1019:1 1127:1 1205:1 1294:2 1380:1 1435:1 1579:1 1581:1 1665:1 1722:1 1800:1 1863:1 1870:1 2002:1 2052:1 2105:1 2122:3 2158:1 2184:1 2542:1 2712:1 2734:1 3234:1 3248:1 3316:1 3317:1 3678:1 3808:3 3822:1 5171:1 5206:1 5389:1 5394:2 6088:2 6575:1 6875:1 6957:1 7008:1 7978:1 7980:1 7985:1 9541:1 9845:1 15378:1 17155:1 19656:1 22844:1 24155:1 45470:1 45471:1 45472:1 #
0.0011745198814033554202129749910455 1:1 4:1 8:15 12:7 21:3 22:7 42:6 49:1 52:15 60:2 70:1 74:1 88:1 110:3 112:1 117:1 118:1 128:3 134:1 136:3 137:1 159:1 165:1 178:2 291:1 353:1 369:1 370:1 377:2 570:1 590:1 600:1 684:1 692:3 695:1 708:1 761:1 771:1 777:1 846:3 887:1 989:3 1005:1 1015:4 1064:1 1099:1 1154:2 1186:1 1255:1 1373:4 1375:1 1379:1 1387:3 1415:1 1591:1 1600:2 1640:1 1660:1 1805:1 1840:2 1883:1 2132:1 2661:2 3024:1 3086:1 3129:4 3246:2 3567:1 5096:4 7796:1 8088:3 8091:6 8339:5 8473:1 9187:1 9804:1 9882:1 10389:1 10390:1 11037:1 11478:1 12033:2 12915:1 13933:1 14291:1 15681:2 18331:1 19503:1 23814:2 27573:1 30339:1 31790:1 34084:1 37078:1 39413:1 41615:1 42574:6 45766:1 #
0.0011745198814033554202129749910455 1:1 8:2 12:2 17:1 22:2 36:1 39:1 42:4 56:1 79:1 99:1 128:2 136:1 139:1 172:1 178:1 183:1 195:1 210:1 225:1 277:1 306:1 399:1 579:1 584:1 590:1 627:1 684:1 687:1 695:1 747:1 754:1 773:1 940:1 941:1 1049:1 1545:1 1822:1 2112:2 2140:1 3053:2 3455:1 3744:1 4823:1 9252:1 9269:1 9890:1 12812:1 13479:2 15290:1 20333:1 35207:1 51231:1 52276:1 #
0.0011745198814033554202129749910455 1:1 4:5 8:4 9:3 12:9 17:2 18:1 22:5 29:1 33:3 36:3 37:3 39:4 41:1 42:7 44:1 48:4 56:7 63:1 65:1 72:2 86:1 88:3 107:4 109:2 111:1 116:3 120:1 122:1 128:1 134:11 136:4 138:1 139:2 163:2 164:1 165:2 169:1 178:1 179:1 211:1 215:1 220:3 221:1 235:3 263:1 270:1 280:1 292:2 293:1 298:1 309:1 332:1 340:2 372:1 539:1 542:1 568:1 570:1 572:1 577:1 579:1 594:3 601:4 640:2 649:1 679:3 771:1 775:1 792:1 797:1 799:2 800:1 805:2 867:2 880:2 886:1 943:1 968:1 1005:1 1167:1 1172:1 1294:1 1471:1 1514:1 1610:1 1640:1 1856:1 1885:1 1967:1 2003:1 2010:1 2060:1 2126:2 2158:1 2178:1 2249:1 2483:3 2500:1 2515:2 2517:2 2613:2 2731:1 2809:1 2994:1 3043:1 3069:6 3075:1 3255:1 3378:2 3408:1 3517:2 3576:1 3648:1 3656:1 3676:8 4055:1 4118:1 4228:1 4268:1 4274:1 4290:1 4334:1 5155:3 5522:1 5545:2 5872:2 6090:1 6359:2 7035:1 7922:1 8081:2 9073:1 9172:1 9187:1 11636:2 11905:7 15201:1 16639:1 18226:1 18229:2 19645:2 24341:1 27021:1 31684:2 34339:1 37327:2 37328:2 37329:1 37330:1 37331:1 #
0.0011745198814033554202129749910455 1:1 8:1 12:1 14:1 22:2 42:12 48:1 59:2 70:1 72:2 88:4 107:1 110:3 134:5 136:5 163:1 164:1 174:1 178:1 220:5 271:1 601:4 606:1 649:2 682:1 695:1 705:1 724:1 754:3 867:1 894:1 968:3 1388:1 1692:3 1751:2 1768:2 2088:1 2258:2 2657:1 3244:1 3402:3 3435:1 3488:1 4200:1 4298:1 4836:2 6508:1 9337:1 14221:2 14222:2 #
-0.0011745198814033554202129749910455 1:1 4:1 8:1 12:1 22:1 36:1 42:1 107:1 134:2 136:3 163:1 176:1 270:1 277:1 292:1 370:1 572:1 679:1 771:1 813:1 2203:1 2580:1 2864:1 3642:1 4330:1 5912:1 6060:1 12854:1 16248:1 21494:1 45117:1 72331:1 #
0.0011745198814033554202129749910455 1:2 4:5 8:3 12:10 17:3 21:1 22:6 33:2 36:1 37:1 39:1 42:12 52:1 54:4 56:1 63:1 70:1 72:5 79:1 88:5 92:1 94:1 105:1 106:1 107:3 110:2 118:1 125:1 128:1 134:5 136:13 137:2 159:1 165:2 169:2 175:1 178:1 180:1 182:1 210:2 215:2 220:1 221:3 235:1 277:3 288:1 292:1 298:1 304:3 312:1 350:1 372:1 508:1 516:13 542:1 563:1 570:1 579:1 582:1 583:1 596:1 600:2 613:2 663:1 682:1 708:1 724:2 754:2 760:1 773:2 775:2 777:1 802:1 940:1 1001:1 1078:1 1088:3 1173:2 1284:1 1285:1 1317:5 1605:1 1723:1 1798:2 1811:1 1884:1 1898:2 1902:1 1941:1 2052:2 2147:1 2205:1 2224:1 2483:1 2496:1 2613:3 2689:1 2731:1 2901:1 2996:1 3010:1 3033:1 3332:1 3364:2 3422:1 3435:1 3487:1 3488:2 3522:1 3583:2 3671:1 3738:1 3900:1 4091:1 4177:2 4228:1 4260:1 5123:1 5522:4 5523:1 5545:1 5605:1 5882:1 6359:1 6632:1 6665:1 6976:1 7625:2 8021:4 8487:3 8584:2 9112:1 9174:1 9187:1 9979:1 10006:1 10795:1 11123:2 11998:1 13091:1 13150:1 13224:1 13917:11 16573:1 20276:2 23832:2 24947:1 45932:5 70675:2 #
0.0011745198814033554202129749910455 1:1 4:4 8:9 9:1 12:9 17:3 22:2 33:1 36:2 37:3 39:6 41:1 42:9 48:2 49:1 52:3 56:3 63:1 70:4 72:1 88:4 107:5 118:3 125:1 128:5 134:11 136:18 137:5 138:2 139:1 154:1 159:3 165:2 166:1 172:1 175:2 176:1 178:2 211:1 215:1 221:4 277:3 279:1 292:2 293:1 298:1 304:1 332:1 372:1 373:2 570:2 572:2 579:2 582:1 594:8 601:6 602:1 603:1 606:1 612:1 671:1 743:1 748:1 760:1 771:1 775:2 805:3 881:1 892:1 930:2 989:1 1023:1 1097:1 1128:1 1144:1 1416:1 1419:1 1449:1 1561:1 1652:1 1673:2 1723:2 1751:1 1811:1 1940:1 1993:2 2126:1 2158:1 2224:1 2255:2 2483:2 2517:3 2529:2 2613:3 2638:1 2752:1 2809:2 2977:1 2996:3 3033:1 3075:3 3155:1 3293:3 3378:1 3381:1 3407:2 3423:1 3488:2 3517:3 3759:1 3805:1 3921:1 3993:1 4233:1 4265:1 4836:1 5059:4 5255:1 5585:1 5780:1 5821:2 5938:1 6065:6 6359:1 6660:1 6667:1 6887:2 7035:2 7092:1 7153:1 7614:2 8081:1 9187:1 9190:2 9508:1 9973:1 9978:1 11005:1 12236:1 12982:1 13450:1 13591:1 14137:3 15120:1 16741:2 16744:1 18574:1 19894:2 22054:3 27393:1 30444:1 31766:1 31787:3 34088:12 34906:1 36399:3 47466:1 50662:1 50868:1 50891:1 65018:1 65019:1 #
0.0011745198814033554202129749910455 1:1 8:2 12:1 21:1 22:1 36:1 42:2 59:1 88:2 107:1 128:2 134:3 136:1 162:1 165:1 230:1 291:2 292:1 310:1 333:1 358:1 574:1 585:1 692:2 735:1 825:1 859:1 867:1 989:1 1064:1 1187:1 1476:1 1868:1 2529:1 2701:1 2996:1 3381:1 4672:1 5053:1 9271:2 9750:1 9950:1 10504:1 26889:1 52390:1 #
-0.0011745198814033554202129749910455 1:1 4:1 8:2 54:2 56:1 107:1 137:2 168:1 183:1 202:1 211:1 219:1 220:1 221:1 277:1 286:1 296:1 366:1 369:1 543:1 561:1 571:1 606:1 641:1 652:2 692:1 761:2 805:1 1167:1 1324:1 1346:1 1362:1 1804:1 1822:1 1960:1 2127:1 2220:1 2567:2 2951:1 3464:1 3474:1 4538:1 4878:1 5389:1 6514:1 6528:1 6529:1 7768:2 10225:1 13002:2 13007:1 21989:1 39641:1 55805:1 64429:1 99255:1 99256:1 #
-0.0011745198814033554202129749910455 1:1 4:2 22:1 42:1 56:1 105:1 107:3 110:1 134:1 139:1 221:1 239:1 277:1 292:1 366:1 513:1 543:1 577:1 695:1 724:1 725:1 775:1 810:1 1038:1 1048:1 1201:1 1375:1 1453:2 1467:1 1476:1 1654:1 2070:1 2803:1 2901:1 3839:1 5505:1 5845:1 6542:4 9171:1 9190:1 9252:1 11969:1 12366:1 26835:1 30490:1 35404:1 35405:1 35406:1 35407:1 35408:1 35409:1 35410:1 35411:1 #
0.0011745198814033554202129749910455 1:1 4:21 8:22 12:5 14:2 17:7 20:12 22:16 27:1 33:2 36:1 37:2 42:9 52:1 56:1 60:2 63:1 65:1 70:3 72:10 77:8 88:2 91:1 92:2 96:1 97:2 99:1 110:8 125:2 128:3 134:1 136:4 137:1 141:1 159:1 163:2 165:8 166:1 171:1 172:2 178:1 195:1 209:1 221:1 233:1 234:2 235:1 266:1 270:1 271:1 277:7 279:3 291:2 292:1 304:1 310:2 325:1 343:1 345:1 354:1 370:2 372:2 374:1 379:1 539:2 542:2 543:1 549:1 554:2 572:3 582:1 587:1 590:1 602:1 603:4 611:1 615:1 644:1 670:1 682:1 692:2 695:2 698:2 739:2 760:1 761:4 787:1 789:9 813:1 825:3 846:2 849:1 867:3 876:1 941:1 951:1 968:3 984:1 1021:1 1063:1 1064:1 1091:1 1119:1 1122:1 1143:1 1187:1 1195:1 1202:2 1243:1 1244:1 1246:1 1252:2 1267:3 1300:1 1313:1 1386:1 1387:2 1461:1 1467:1 1549:2 1600:1 1719:1 1725:1 1732:3 1733:1 1789:1 1791:1 1907:1 1944:1 2002:1 2028:1 2081:1 2088:3 2102:1 2133:1 2245:1 2529:1 2542:2 2630:1 2731:2 2793:1 2958:1 3064:2 3121:1 3213:1 3252:1 3332:1 3404:1 3598:1 3618:6 3679:1 3945:1 3985:1 4012:1 4113:1 4128:1 4147:1 4221:1 4366:2 4571:1 4880:1 5213:1 5231:1 5289:10 5378:1 5578:1 5735:1 5736:1 5737:1 5792:1 5935:1 6541:1 6961:1 7090:1 7092:1 7346:1 7552:1 7681:1 7785:1 8088:1 8172:9 8201:1 8339:3 8357:4 8452:1 8482:14 9413:1 9737:1 9801:1 9919:1 10378:1 10533:1 10539:4 10710:1 12234:1 13447:1 14972:1 16240:1 17149:1 18491:1 18511:1 19010:1 19538:1 20333:1 20423:1 20460:1 20976:1 23490:1 25238:1 29022:1 29173:1 30423:1 31243:1 31413:1 31546:1 32127:1 32666:1 33396:1 39918:1 46957:2 48217:1 59885:1 60134:1 62060:1 63017:1 63141:1 67801:1 78136:1 78137:1 78138:1 78139:1 78140:1 #
0.0011745198814033554202129749910455 1:1 8:1 12:1 14:2 17:3 36:1 37:1 42:2 71:1 79:1 88:2 107:1 128:1 134:3 136:3 147:1 298:1 310:2 367:2 514:2 705:2 941:1 1005:1 1013:2 1083:1 2126:1 2141:1 2262:1 2781:2 3198:1 3616:1 3807:4 3808:2 4055:1 4465:1 5872:1 9271:1 11730:1 13002:1 14644:1 #
0.0011745198814033554202129749910455 1:1 4:4 8:4 12:3 22:3 33:2 37:2 42:6 52:2 56:2 64:1 70:2 72:2 88:1 96:1 110:5 117:1 128:1 134:1 136:8 137:2 165:3 178:1 215:1 221:2 224:2 235:3 282:1 304:7 310:9 333:1 344:2 359:1 372:1 417:1 549:1 551:1 584:3 586:1 594:1 601:1 602:3 603:3 627:1 682:1 687:1 692:3 698:1 704:1 705:1 761:2 775:1 846:1 851:2 887:1 893:1 894:1 968:2 989:2 991:2 1064:1 1154:1 1167:1 1201:1 1264:1 1420:1 1454:1 1540:1 1594:1 1626:1 1683:1 1692:1 1697:1 1907:1 1928:1 2022:1 2058:1 2069:1 2099:1 2517:1 2529:1 2587:1 2613:1 2711:1 2736:1 3293:1 4221:1 4324:1 4330:1 5059:1 5938:1 6989:1 7190:1 7545:3 7796:1 7988:1 8035:1 8064:2 8562:1 9970:2 9985:1 10406:1 11457:2 12766:1 12777:1 15095:1 16105:1 17847:1 19520:1 19540:1 20293:1 20691:1 23625:1 30508:1 87658:1 #
-0.0011745198814033554202129749910455 1:1 22:1 56:1 70:1 134:1 136:1 159:1 233:1 277:1 310:1 370:1 600:1 777:1 9801:1 15286:1 24436:1 #
0.00037211844209748357135275620422021 1:1 2:5 4:26 5:1 8:74 12:17 15:1 17:21 19:1 21:4 22:25 30:4 33:6 35:1 36:3 37:12 41:4 42:33 46:1 49:2 52:2 53:1 56:3 59:1 63:4 65:2 70:6 72:10 74:2 78:4 82:2 86:1 88:10 92:1 99:3 103:2 105:2 106:1 107:11 109:1 110:7 115:1 118:8 125:9 128:10 134:7 136:26 137:13 138:1 139:1 140:1 147:2 154:1 157:2 163:4 164:1 165:7 167:1 169:1 175:5 177:1 178:3 179:1 182:2 193:1 194:1 211:2 221:3 234:2 235:6 250:1 270:1 271:7 280:1 292:1 305:2 309:1 312:1 313:1 316:2 319:1 331:1 332:2 344:1 352:1 369:1 371:1 372:2 374:1 423:4 508:2 516:1 532:1 570:1 583:1 586:1 590:3 600:1 606:1 651:9 652:1 653:2 663:7 692:1 695:2 698:2 705:1 708:3 712:1 724:15 725:2 732:1 735:1 761:1 771:4 773:1 777:4 785:9 825:1 843:1 846:3 867:6 877:1 908:1 916:3 930:3 943:4 961:1 968:2 969:1 986:1 988:5 1002:1 1008:2 1009:2 1015:1 1032:1 1097:1 1099:1 1113:2 1114:1 1132:1 1167:3 1170:1 1176:4 1187:2 1201:2 1206:1 1207:1 1227:2 1228:1 1243:1 1244:1 1264:1 1299:2 1317:1 1342:6 1400:1 1426:1 1453:13 1454:1 1461:3 1469:1 1475:1 1476:2 1486:1 1536:2 1540:1 1557:2 1561:1 1569:2 1574:1 1598:1 1600:2 1604:2 1605:1 1607:1 1640:4 1645:2 1652:1 1660:2 1663:16 1673:2 1716:3 1759:1 1769:2 1791:3 1811:6 1836:1 1840:1 1863:1 1889:1 1892:1 1894:2 1980:27 2008:1 2027:2 2058:3 2061:3 2069:3 2074:1 2078:1 2141:1 2178:1 2182:1 2200:2 2212:3 2223:5 2240:1 2252:1 2254:1 2255:3 2483:1 2529:1 2530:4 2569:2 2587:1 2656:5 2661:1 2734:2 2806:1 2816:1 2822:1 2824:1 2855:1 2939:1 2964:2 2970:1 2985:1 2990:1 3038:1 3096:1 3113:1 3163:3 3172:2 3216:4 3244:1 3255:4 3281:1 3306:1 3311:1 3362:1 3380:1 3392:1 3396:6 3429:2 3435:1 3459:1 3465:2 3473:1 3475:1 3479:1 3551:2 3623:1 3633:5 3634:1 3656:1 3661:2 3668:1 3724:2 3725:1 3727:1 3758:1 3802:1 3803:3 3843:3 3941:1 3993:2 4077:3 4083:1 4126:1 4260:11 4316:1 4344:1 4357:1 4374:1 4380:1 4420:6 4482:4 4491:2 4768:1 4824:2 4881:2 4998:1 5090:1 5203:1 5489:2 5499:6 5585:1 5783:1 5837:1 5838:1 5866:1 6300:1 6508:1 6633:1 6668:3 6680:1 6926:3 7070:1 7082:1 7143:1 7190:9 7348:1 7350:1 7354:1 7445:1 7503:1 7549:1 7625:2 7745:1 7754:1 7785:1 7974:1 8367:1 8369:5 8797:1 9259:1 9312:2 9448:4 9581:1 9884:1 10015:1 10149:1 10152:1 10402:1 11001:1 11099:18 11151:1 11160:1 11235:1 11300:3 11456:1 11871:4 12049:1 12050:1 12555:1 12622:1 12890:1 13015:2 13043:2 14137:1 14342:2 14378:1 15362:1 15556:1 16142:1 16196:3 17215:1 18230:1 18444:1 19065:1 20757:1 22653:6 23784:1 24442:4 24639:1 25514:1 27502:1 27600:2 27601:1 27602:1 27603:2 27604:1 27605:1 27606:1 27607:1 27608:1 27609:1 #
-0.0011745198814033554202129749910455 1:1 22:1 63:1 107:1 122:1 134:1 136:2 137:1 198:1 277:2 304:1 354:1 553:2 785:1 968:1 4199:1 7702:1 8021:1 10407:3 12812:1 59910:2 59911:2 59912:1 #
0.0011745198814033554202129749910455 1:1 4:3 7:5 8:8 12:4 17:3 22:1 26:1 33:1 36:6 37:3 39:4 41:5 42:5 44:1 56:3 63:2 70:1 72:1 88:6 105:2 107:8 110:2 111:1 118:2 121:1 125:3 128:3 129:1 133:1 134:10 135:1 136:6 137:2 139:1 163:3 175:4 178:1 182:2 211:1 215:1 221:2 271:2 277:1 280:1 293:1 318:1 332:1 343:1 344:2 543:1 554:1 563:1 572:1 590:1 594:6 679:1 682:1 703:1 705:2 747:1 793:1 867:2 880:1 915:1 930:1 946:1 1023:1 1097:1 1243:1 1294:1 1318:1 1372:1 1510:1 1749:1 1841:2 1872:1 2005:1 2126:1 2179:1 2220:1 2243:1 2255:2 2517:2 2552:1 2608:1 2661:1 2699:1 2724:1 2809:1 2898:3 3069:4 3255:1 3293:2 3387:1 3407:1 3622:1 3686:1 3694:1 3727:5 3874:1 4199:1 4260:1 4435:2 4880:1 5045:1 5141:1 5359:1 5618:1 5777:1 6090:1 6293:1 7785:1 8032:1 8219:1 10429:1 11055:1 11183:1 11391:1 11730:1 13056:1 13411:1 14134:2 14137:1 14248:1 16223:6 16599:1 17674:1 27027:1 30467:1 32595:1 33913:1 34231:1 71077:1 71078:1 90682:2 98545:1 #
0.0011745198814033554202129749910455 1:2 2:1 4:1 8:13 9:1 12:8 17:3 21:2 33:4 36:1 37:2 42:8 48:5 54:3 56:2 63:3 70:6 72:3 86:1 88:6 92:1 94:1 107:4 109:3 111:1 125:1 128:4 134:9 136:10 137:3 138:2 159:3 164:1 165:2 175:1 178:4 179:1 187:1 220:2 221:1 279:5 292:1 296:1 298:1 304:2 310:2 332:1 333:1 357:1 374:1 549:1 570:1 584:1 594:2 601:8 633:1 635:1 640:2 649:3 679:2 682:1 708:1 724:4 760:2 761:3 773:1 777:1 813:1 867:3 868:1 894:1 930:1 968:2 989:1 990:2 1001:1 1023:1 1028:1 1063:1 1097:1 1114:2 1127:1 1176:1 1213:1 1294:1 1314:1 1419:1 1449:1 1540:2 1604:1 1632:1 1640:3 1663:1 1760:1 1818:2 1845:1 1931:1 2065:1 2078:1 2483:4 2533:2 2553:1 2612:1 2613:1 2656:1 2763:1 2981:1 2989:1 3069:8 3129:1 3332:1 3347:1 3378:1 3393:1 3407:2 3408:1 3424:1 3473:1 3516:1 3552:2 3581:1 3619:1 3676:1 3805:1 3952:1 4181:27 4228:1 4482:1 4836:1 5522:1 5588:1 5754:1 6001:1 6090:2 6229:2 6887:3 7035:2 7922:1 8004:1 8316:1 9073:1 9234:2 9392:1 10556:1 12748:1 12897:1 12936:1 13226:3 13894:1 13921:1 17358:1 22679:2 25446:1 83190:1 #
0.0010926949665417818972901198293357 1:3 4:18 8:43 9:1 12:19 14:2 17:14 20:3 21:7 22:21 23:1 29:1 30:1 33:3 36:3 37:2 41:1 42:24 52:3 54:1 56:2 60:1 63:1 70:2 72:3 76:2 83:1 88:2 99:1 105:1 107:14 110:17 117:3 118:5 125:4 128:5 134:2 136:6 155:1 159:1 162:1 163:1 165:6 166:2 170:2 171:1 175:1 180:1 195:1 196:1 199:1 201:1 211:1 221:3 224:1 233:1 234:2 235:2 255:2 256:1 265:18 270:1 271:3 272:1 277:19 299:1 304:1 310:2 312:2 323:2 331:1 333:2 361:1 364:1 369:4 372:4 374:4 395:1 399:1 401:1 508:1 513:2 516:1 542:1 550:2 553:3 565:1 570:1 572:2 577:1 588:1 590:4 594:3 603:3 628:1 635:3 679:1 683:1 684:4 692:17 695:2 697:3 703:1 704:2 705:2 719:2 723:1 726:1 729:1 748:1 749:2 754:1 761:6 769:1 773:1 774:6 775:5 777:2 778:1 785:1 789:1 790:2 793:2 802:3 807:1 808:1 812:7 817:1 846:1 853:1 859:1 867:4 894:2 900:5 908:1 930:2 951:2 968:2 979:4 985:1 988:2 1015:2 1022:1 1023:1 1026:1 1055:1 1059:2 1099:9 1114:2 1135:2 1144:1 1154:17 1157:1 1167:4 1175:1 1176:1 1187:3 1205:1 1213:1 1214:1 1246:2 1255:1 1274:1 1284:3 1307:4 1313:1 1351:1 1365:2 1373:3 1375:1 1386:1 1391:1 1402:1 1406:1 1435:1 1439:1 1448:2 1461:3 1473:1 1499:1 1526:1 1540:1 1549:2 1553:1 1612:1 1655:1 1706:1 1717:1 1736:2 1805:1 1826:1 1850:1 1867:1 1871:1 1875:3 1877:1 1892:1 1907:3 1908:2 1913:3 1920:1 2006:3 2018:20 2099:3 2101:1 2134:1 2151:1 2164:1 2166:1 2170:1 2172:2 2203:1 2224:1 2276:1 2282:1 2488:1 2508:1 2612:1 2674:2 2681:1 2694:1 2711:3 2725:1 2733:1 2793:1 2795:2 2804:1 2835:1 2858:1 2900:1 2907:1 2964:1 2980:2 2988:1 3064:2 3120:1 3129:1 3156:1 3173:1 3189:1 3199:1 3216:1 3218:1 3248:1 3256:1 3275:5 3295:1 3307:2 3309:1 3345:1 3371:19 3381:1 3399:2 3468:1 3596:1 3620:1 3785:1 3799:2 4257:1 4340:1 4380:1 4408:1 4510:1 4538:1 4606:1 4641:1 4657:1 4698:1 4717:2 4894:1 4895:1 5056:1 5093:1 5096:1 5123:1 5221:1 5359:1 5398:1 5426:1 5429:2 5518:1 5523:1 5653:1 5776:1 5854:1 6016:2 6017:1 6268:1 6280:1 6478:3 6549:1 6578:1 6609:1 6756:1 6793:1 6887:2 7022:3 7153:1 7403:1 7609:1 7631:1 7678:2 7787:2 8032:1 8172:1 8236:1 8252:2 8263:2 8300:1 8357:3 8367:1 8473:2 8512:1 8513:1 8520:1 8607:1 9041:1 9245:2 9551:1 9715:2 9729:1 9829:1 9985:1 10048:1 10051:1 10134:1 10162:1 10185:1 10389:1 10827:2 10862:1 10898:1 10965:4 11122:1 11255:1 11328:1 11429:2 11461:1 11467:1 11500:1 11533:1 11587:2 11678:1 11682:2 11786:1 11811:1 11850:1 11923:1 12086:1 12235:1 12780:40 12784:1 12962:1 13444:1 13499:1 13503:1 13635:1 13650:2 15380:3 15573:1 15621:1 15731:1 15841:1 15846:2 15856:1 16012:1 16036:2 16573:1 16610:1 16682:1 16933:1 18923:1 19224:2 19225:1 19580:1 20513:1 21663:1 22012:1 22135:1 22216:1 23239:1 23497:1 23770:1 24035:1 24248:1 24910:1 26283:1 27045:1 28028:2 28469:1 29286:1 29539:2 29940:1 30188:1 32317:1 33331:1 34063:1 35266:1 36642:1 36854:1 37411:1 37696:1 38075:1 38116:1 39505:2 41138:1 41896:1 42547:1 43675:1 43821:1 43883:1 46436:1 48945:1 54618:1 55172:2 58238:1 60512:20 60825:1 61043:2 66382:2 70837:1 71245:1 73377:1 76649:1 79811:1 82577:1 91181:1 91780:1 100305:1 104021:1 104022:1 104023:1 104024:1 104025:1 104026:1 104027:1 104028:1 104029:1 104030:1 104031:1 104032:1 104033:1 104034:1 104035:1 #
-0.0011745198814033554202129749910455 1:1 4:1 6:1 8:2 22:1 33:1 36:1 37:2 39:1 42:5 59:1 60:1 63:1 64:3 70:1 72:3 74:1 88:1 107:5 110:1 118:2 128:1 129:1 134:4 136:2 159:1 165:1 178:1 211:1 221:1 230:1 235:2 271:1 340:1 346:1 373:3 549:2 563:2 570:1 586:1 601:1 606:1 679:1 760:1 771:2 851:1 914:1 1023:4 1032:1 1049:1 1206:2 1243:1 1244:1 1400:1 1476:2 1571:2 1670:1 1677:1 1723:1 1777:1 1902:1 1908:1 1923:1 2065:1 2258:1 2277:1 2483:1 2613:5 2711:1 2964:1 2996:1 3069:1 3332:1 3405:2 3423:1 3528:1 3590:1 3993:2 4200:1 4338:2 4430:1 4467:1 4481:1 4508:1 5273:1 5698:1 5803:1 6237:1 9316:1 12556:1 15647:1 17673:2 21688:1 24127:1 51149:1 101565:1 #
0.0011745198814033554202129749910455 1:1 4:3 8:1 12:18 14:1 30:2 39:2 41:2 42:4 48:4 51:1 56:1 63:1 64:3 70:1 72:1 86:1 88:3 99:2 109:1 111:1 118:3 128:3 131:1 134:2 139:1 162:1 179:2 184:1 188:4 202:1 210:1 224:1 277:2 284:1 288:2 296:1 545:1 554:1 570:3 571:1 594:4 601:2 661:2 663:1 671:5 679:5 705:1 730:1 736:3 760:2 771:1 843:2 877:2 879:4 880:1 890:1 914:1 986:2 1044:1 1045:1 1070:3 1071:3 1081:1 1083:4 1193:1 1214:1 1244:1 1246:1 1263:1 1330:1 1369:1 1596:2 1619:1 1811:2 1844:1 1845:3 2069:1 2170:1 2243:1 2255:2 2258:1 2259:1 2483:2 2517:1 2655:1 2785:1 2809:1 2850:1 2864:1 2901:1 2981:1 2996:2 3001:1 3030:1 3083:3 3245:4 3284:1 3293:1 3395:1 3402:1 3480:1 3488:1 3517:2 3656:1 3835:1 3891:1 3906:1 3986:1 4061:1 4112:1 4291:2 4430:1 4482:2 4505:1 4979:3 5058:1 5182:7 5221:1 5283:1 5866:2 5872:1 5964:2 6244:1 6359:1 6937:1 7145:1 7209:1 7381:1 7495:1 9073:1 9466:3 9997:1 10451:1 11213:1 11973:1 12038:1 12437:1 12553:1 14261:1 15576:1 15647:1 16044:1 16694:1 19287:2 19768:1 19769:2 24631:1 29480:1 30733:1 31380:1 38594:1 38595:1 38596:2 38597:1 38598:1 38599:1 46755:1 46756:1 46757:1 46758:1 46759:1 46760:1 #
0.0011745198814033554202129749910455 1:1 8:1 21:1 33:1 49:1 54:1 70:1 125:1 134:1 136:1 172:1 205:1 291:1 516:1 584:1 590:1 602:1 603:1 760:1 1510:1 1727:1 1729:1 2220:1 4964:1 6653:1 15263:2 48175:1 #
0.0011745198814033554202129749910455 1:1 4:2 8:4 9:2 12:2 17:3 21:1 22:1 30:1 37:1 39:1 42:5 48:1 63:2 70:1 72:1 88:2 105:1 117:3 125:1 128:3 134:1 136:7 137:2 138:2 139:1 154:3 163:1 175:1 178:2 179:2 260:1 333:1 357:1 594:3 601:2 652:1 760:1 930:1 937:1 939:1 984:1 991:1 1023:1 1308:1 1510:1 1561:1 1652:1 1710:1 1759:2 1818:1 2081:1 2167:1 2255:1 2517:2 2529:1 2611:1 2613:2 2614:1 2980:1 3038:1 3075:3 3189:1 3293:2 3324:1 3332:1 3378:2 3393:1 3394:1 3459:1 5905:2 7094:1 13590:1 15244:1 18633:1 19252:1 25386:4 27838:1 67302:2 67305:1 88094:1 101524:1 #
0.00075694762494093830156732805036768 1:2 8:7 12:1 17:2 22:1 33:1 37:1 39:1 42:9 48:2 54:6 56:1 59:4 64:1 70:2 92:1 105:1 107:2 110:4 125:1 129:1 136:8 137:3 159:1 163:1 164:1 165:2 178:2 184:1 202:2 215:1 219:1 220:1 221:2 224:1 230:1 232:1 251:2 277:1 292:4 310:1 320:1 377:1 516:6 537:2 553:1 554:1 572:2 579:1 581:1 584:1 594:2 627:1 682:1 695:2 704:1 724:1 775:2 813:1 817:1 825:1 830:1 852:1 864:1 867:1 887:1 892:1 968:2 989:1 1012:2 1083:1 1263:2 1386:1 1397:1 1435:1 1616:1 1640:1 1677:1 1689:1 1692:1 1696:2 1867:1 1941:1 2010:1 2078:1 2094:1 2200:1 2229:1 2271:1 2273:2 2283:1 2613:1 2638:1 2819:1 2994:1 3083:1 3293:1 3476:1 3512:1 3666:1 3808:6 4184:1 5640:1 6503:1 6508:1 6887:1 6957:1 7730:1 8035:1 11593:1 11620:1 13026:2 13429:1 14874:1 15202:1 15679:4 16712:2 23486:1 27835:1 27883:1 31608:1 35385:1 43504:1 48184:1 48610:2 54171:1 67760:2 67761:2 67762:1 67763:1 67764:1 67765:2 #
0.0011745198814033554202129749910455 1:1 8:1 14:1 42:1 72:1 88:2 111:1 128:1 131:1 134:3 165:1 200:1 205:2 224:1 235:1 310:1 568:1 761:1 1540:1 2114:1 3473:1 4261:1 4896:1 5775:1 8511:1 9963:1 #
-0.0011745198814033554202129749910455 1:1 4:1 8:1 12:2 17:1 29:1 35:2 42:1 70:1 74:1 77:1 94:1 134:2 136:2 163:1 165:5 172:2 286:1 310:1 333:1 513:1 570:1 577:1 748:1 773:1 780:1 789:1 817:1 988:1 989:1 1664:1 1723:1 1907:1 2608:1 2898:1 3004:1 3473:1 3911:1 4083:1 5790:1 6495:1 7404:1 9600:1 12362:1 13257:1 16170:1 17048:1 19483:1 19486:1 20746:1 20805:1 30505:1 30506:1 51714:1 51716:1 51718:1 63721:1 78514:1 78515:1 78516:1 78517:1 #
-0.0011745198814033554202129749910455 1:1 70:1 159:1 195:1 215:1 234:1 235:1 277:1 310:1 930:1 5889:1 9801:1 17426:1 19504:1 26949:1 62408:1 62409:1 62410:1 #
0.0011745198814033554202129749910455 1:1 4:1 6:1 7:1 8:3 12:1 17:4 21:1 30:3 36:1 37:1 39:2 41:9 42:5 48:1 55:1 56:1 63:2 68:1 70:1 72:1 79:1 88:6 94:1 107:6 110:1 125:1 128:1 134:13 136:3 137:1 154:1 163:1 165:1 176:1 178:3 179:1 182:1 194:1 195:1 201:1 221:1 271:1 277:1 293:1 296:2 298:1 318:1 343:2 344:2 477:1 543:1 544:1 554:1 556:1 563:2 572:2 593:1 594:3 601:2 649:1 652:1 661:1 671:1 679:1 692:1 708:1 719:1 725:1 748:1 867:2 930:1 937:1 946:1 968:1 1001:1 1023:3 1081:1 1088:1 1196:1 1318:2 1416:1 1453:1 1571:1 1612:1 1751:1 1798:1 1818:1 1892:1 2106:1 2117:3 2126:1 2167:1 2271:1 2276:1 2483:1 2502:1 2574:1 2799:1 2809:1 2871:3 2898:1 2984:1 2986:2 3189:1 3244:1 3255:1 3293:3 3378:1 3381:1 3387:1 3407:2 3581:1 3676:1 3727:1 3763:1 3944:1 4113:2 4177:1 4260:2 4334:1 4549:2 4553:1 4836:1 5159:1 5189:1 5830:1 6065:1 6090:1 7103:1 8219:1 9112:1 9337:1 10429:3 10432:1 10433:1 10434:1 10733:1 11123:1 11367:1 12422:1 13917:1 13981:1 18331:1 20056:1 23698:1 27027:1 28000:1 53133:8 53135:1 53136:1 53139:1 71913:3 #
0.0011745198814033554202129749910455 1:1 4:7 21:1 63:1 70:2 72:1 118:1 128:2 139:1 165:2 195:1 209:1 271:1 292:1 299:1 309:2 323:3 344:2 372:3 385:1 543:1 553:1 556:1 563:1 577:1 590:1 615:5 736:2 748:1 773:1 1038:1 1074:1 1132:4 1214:10 1252:2 1256:1 1318:2 1594:1 1616:1 1928:1 2485:1 3028:5 3029:2 3038:2 3129:1 3459:2 3486:1 3681:2 3805:2 4302:1 4307:1 4448:1 4555:1 4825:2 5008:1 5875:1 5896:1 6953:2 8027:3 9580:1 11022:1 11645:2 12810:1 17095:6 29128:1 54892:1 #
-0.0011745198814033554202129749910455 1:1 29:1 42:1 104:1 107:1 110:1 134:1 136:1 263:1 277:1 292:1 304:1 371:1 600:1 1027:1 1114:1 1594:1 2126:1 2158:1 2587:1 2780:1 3317:1 4836:1 5294:1 5844:1 8172:1 10354:1 10413:1 10665:1 11051:1 11853:1 11867:1 13379:1 14410:1 15190:1 16960:1 17372:1 18165:1 18915:1 23018:1 26580:1 26746:1 30889:1 30913:1 32696:1 36366:1 36539:1 37239:1 39300:1 41137:1 41375:1 42780:1 44184:1 44212:1 46691:1 48133:1 50477:1 50621:1 52436:1 54256:1 56073:1 58524:1 58898:1 59592:1 64447:1 65790:1 68227:1 69862:1 73742:1 77099:1 77530:1 78710:1 85310:1 85318:1 85759:1 85895:1 87071:1 87850:1 89494:1 89503:1 96825:1 96900:1 99246:1 99247:1 99248:1 99249:1 99250:1 99251:1 99252:1 99253:1 99254:1 #
0.0011745198814033554202129749910455 1:2 4:6 8:14 9:1 12:22 14:2 17:7 21:3 22:3 27:1 33:6 37:5 42:9 60:3 70:2 72:5 78:1 87:2 88:1 94:2 95:1 99:2 105:1 107:16 110:5 118:2 119:1 125:8 128:5 134:20 136:50 163:7 165:2 166:3 169:3 182:1 183:5 184:1 195:9 199:1 202:1 209:3 219:1 220:1 221:4 224:1 226:1 230:14 232:9 233:2 235:1 239:2 243:1 265:1 271:3 277:4 279:22 280:1 286:5 292:8 310:41 323:1 343:2 344:8 345:2 346:1 361:1 366:3 370:2 374:1 385:2 389:4 412:1 543:12 551:2 554:4 556:4 559:2 563:15 564:1 565:2 570:2 572:1 577:2 579:1 584:7 590:1 594:1 596:10 603:4 611:4 628:1 629:3 692:1 695:1 698:2 705:3 716:2 723:1 739:1 741:1 761:1 773:1 777:4 813:3 818:1 825:1 851:2 859:1 867:5 886:1 908:1 930:1 968:1 989:1 1100:2 1104:1 1117:1 1135:2 1154:2 1187:2 1246:1 1267:2 1283:1 1314:1 1348:1 1361:2 1372:1 1373:4 1399:1 1416:1 1420:1 1451:1 1460:1 1461:1 1494:1 1499:1 1519:3 1600:1 1616:5 1652:1 1661:2 1677:1 1689:1 1692:1 1707:1 1723:2 1796:1 1822:3 1872:1 1892:1 1902:1 1906:1 1907:12 1929:2 2044:1 2086:1 2088:1 2103:1 2108:1 2126:1 2161:1 2200:3 2203:2 2224:1 2239:1 2276:1 2485:1 2517:1 2527:3 2529:2 2548:1 2583:1 2664:3 2711:1 2752:1 2819:1 3092:1 3205:1 3256:1 3290:1 3293:1 3328:1 3381:1 3435:1 3459:1 3473:1 3494:1 3619:1 3704:1 3802:1 3974:1 4147:1 4362:3 4575:1 5056:1 5061:1 5146:1 5153:1 5191:1 5194:1 5375:4 5416:2 5504:2 6284:1 6289:1 6869:1 6948:1 6961:1 7066:1 7074:1 7092:2 7404:2 7681:4 7690:1 7769:1 7788:1 8021:2 8032:1 8080:1 8107:1 8251:2 8263:10 8357:1 8366:1 8369:3 8500:1 9506:1 9508:1 9567:1 9976:1 10008:1 10185:1 10383:1 10846:1 11397:1 11418:4 11900:2 12877:1 12952:1 13443:1 13446:1 13569:7 14696:1 14876:1 15356:1 15638:1 15797:1 16056:1 16105:1 16248:1 16551:1 17462:1 18203:1 18491:1 19118:10 19735:1 19825:2 19972:2 20398:2 21893:1 22393:1 23214:1 24642:1 27667:1 30423:1 32287:1 33603:1 34413:2 37371:1 38116:1 39998:1 40678:1 44212:1 46152:2 47712:3 49177:1 54140:1 60219:1 60816:1 60818:3 67210:6 75406:1 101343:3 102550:1 104703:1 104704:1 104705:1 104706:1 104707:1 104708:1 104709:1 104710:1 104711:1 104712:1 104713:1 #
0.0011745198814033554202129749910455 1:1 4:1 8:1 17:48 42:1 86:1 195:1 222:1 223:1 232:2 255:1 344:1 349:1 372:8 405:1 462:1 481:1 488:1 528:1 543:1 563:3 617:1 697:2 717:1 739:1 742:1 954:1 967:1 1008:3 1009:1 1706:1 1708:1 1712:1 2743:1 2818:1 2997:1 3083:1 3084:1 3428:1 3560:1 3701:1 3702:1 3703:1 3704:1 3705:1 3706:1 3707:1 3721:1 3722:1 4385:1 4386:1 4387:1 4510:1 4567:1 4581:1 4625:1 4899:1 4914:1 4936:1 4971:1 5283:1 5555:1 6131:1 6187:1 7527:1 7543:1 12939:1 17232:1 17233:1 17234:1 19377:1 46009:1 #
0.0006220344447476524847931433903625 1:1 4:9 12:1 42:3 63:9 88:2 107:1 136:1 137:2 165:1 171:9 195:2 239:4 286:4 293:1 310:1 344:7 345:1 369:1 384:5 516:1 543:4 552:1 556:1 560:1 563:10 584:2 627:2 698:1 761:1 775:1 877:1 989:1 1034:1 1113:1 1318:2 1361:1 1467:1 1652:7 1689:2 1751:1 1776:1 1781:1 1800:1 1814:1 2108:1 2285:1 2699:1 2738:1 2907:1 3305:1 4728:1 4863:1 6264:1 8079:1 8242:1 8322:9 9544:1 9892:1 10097:1 10407:1 13981:1 14289:3 16741:3 18738:1 18973:1 23192:4 26740:2 36508:1 36509:1 36511:1 36512:1 36513:1 36514:3 36515:2 36519:1 36520:1 36521:1 #
0.0011745198814033554202129749910455 1:1 4:2 8:1 10:1 30:1 33:1 37:1 41:3 72:1 86:1 88:1 107:2 109:1 134:1 136:1 165:2 195:1 277:1 286:1 344:1 357:1 554:1 563:6 653:6 687:9 695:1 736:1 1004:1 1346:1 1475:1 1883:1 1959:1 3189:1 3222:1 3342:5 3889:1 4231:1 4253:3 4255:1 4836:2 5705:1 7000:6 8042:1 8043:1 8487:1 8626:2 8762:1 10358:2 10494:1 12008:1 13069:1 13980:1 15483:1 23798:1 28658:1 37679:1 43937:1 55615:1 82067:1 #
0.0011745198814033554202129749910455 1:1 4:4 8:3 17:5 33:1 37:1 41:1 42:3 75:1 93:1 101:1 118:1 150:1 187:1 196:2 223:1 232:1 239:1 258:1 266:2 279:1 292:1 310:1 316:1 344:1 514:1 543:3 544:1 559:1 563:1 773:1 851:1 986:1 1095:1 1118:1 1207:1 1232:2 1270:1 1465:2 1648:1 1798:1 1931:1 2127:1 2505:2 3380:1 3803:1 4170:1 4239:1 4240:1 4820:1 4822:1 4890:1 5513:1 5964:2 6854:1 7007:1 9269:1 9485:1 11931:1 12354:1 12355:1 12426:1 13013:1 #
0.0011745198814033554202129749910455 1:1 4:10 8:10 12:5 15:1 17:2 42:5 49:1 51:1 63:6 72:3 88:4 107:1 111:1 125:1 175:4 180:1 188:1 235:1 259:1 271:1 288:3 544:1 553:1 563:1 585:2 698:1 724:1 773:1 842:1 867:1 1031:3 1040:1 1045:1 1062:1 1077:1 1082:1 1318:1 1386:1 1434:1 1478:2 1578:1 1606:1 1654:5 1845:1 1851:1 1852:1 2074:1 2106:1 2108:1 2236:2 3324:1 3757:2 3778:2 3901:1 3996:1 4112:1 4362:3 4836:3 4883:1 4896:1 5163:3 5479:1 5485:4 7354:2 7756:1 8267:1 9055:1 9708:1 9760:6 9761:1 9902:1 10060:2 10448:3 10836:1 11041:1 11220:1 11277:1 11466:1 11470:2 12487:1 12534:1 14410:2 14898:1 20046:1 24246:1 29908:1 34041:1 61109:1 63374:2 69050:1 73858:1 85102:1 #
-0.0011745198814033554202129749910455 1:1 8:1 12:3 22:1 42:1 54:1 63:1 72:1 88:1 107:1 128:1 134:2 139:1 179:1 217:1 220:1 312:1 516:1 539:1 575:1 594:2 695:1 1083:1 1130:2 1294:1 1581:1 1845:1 2090:1 2489:1 2517:1 2613:1 3616:1 3767:1 4083:1 4223:1 4575:1 5310:1 5712:1 6358:1 7731:1 9895:1 11391:1 11847:1 13681:1 14211:1 17554:1 20195:1 28416:1 32110:1 69203:1 69204:1 69205:1 #
-0.0011745198814033554202129749910455 1:1 4:11 8:16 12:8 14:2 17:7 20:1 21:3 22:7 30:2 33:5 36:1 37:5 39:1 42:16 48:1 49:2 52:1 54:2 56:3 60:1 63:3 65:2 72:2 87:1 88:8 94:2 103:1 106:1 107:1 110:5 118:3 119:1 128:1 129:1 134:5 136:8 137:2 139:2 140:1 161:2 163:7 164:1 175:3 178:2 179:2 182:1 183:2 184:1 221:1 230:2 265:3 271:7 277:1 279:3 286:2 292:4 296:1 304:2 310:10 316:3 326:2 344:2 358:1 369:1 374:1 385:1 514:1 516:1 543:1 544:1 563:1 565:1 575:1 584:5 585:1 594:1 692:1 694:1 695:1 703:2 705:1 725:1 771:1 802:2 842:1 859:1 867:1 914:1 930:1 937:1 953:1 963:1 989:1 991:2 1002:1 1003:1 1006:1 1032:2 1047:1 1083:3 1144:3 1154:1 1175:1 1196:1 1239:1 1246:1 1308:1 1315:1 1373:1 1379:1 1380:1 1406:1 1461:1 1530:1 1557:1 1581:1 1640:1 1654:1 1656:1 1698:1 1735:1 1863:2 1890:1 1892:1 1920:2 1977:1 2022:1 2024:2 2025:1 2044:1 2059:1 2092:1 2099:1 2106:1 2133:1 2167:1 2169:1 2505:1 2530:1 2624:1 2723:1 2734:2 2738:1 2753:1 2799:1 2969:1 2996:1 3069:2 3083:1 3170:1 3208:1 3216:1 3239:1 3246:1 3250:2 3252:1 3253:2 3258:1 3275:2 3282:2 3291:2 3292:2 3319:1 3336:2 3359:1 3364:1 3383:2 3480:1 3551:1 3795:1 3822:1 3924:2 4166:1 4462:1 4558:2 4982:1 5035:1 5278:1 5414:1 5615:1 5628:1 5804:1 5834:1 6009:1 6020:1 6859:1 6975:1 7007:1 7011:1 7212:1 7745:1 8267:1 8303:1 8361:1 8512:1 8561:1 9440:1 9772:1 9776:1 9815:1 9930:1 9973:1 10060:1 10100:2 10648:2 10876:1 11001:2 11686:1 11922:1 12029:1 12993:1 13170:1 13171:1 14069:1 14406:2 14407:3 15957:1 16171:1 16565:1 19355:1 19472:1 26778:1 34601:1 39552:1 46647:1 51771:2 52246:2 58282:1 61212:1 61213:1 91497:1 #
0.0011745198814033554202129749910455 1:1 4:7 8:16 9:1 12:5 17:4 21:5 22:14 37:3 42:11 52:1 56:3 70:5 72:16 75:1 88:3 94:1 96:1 99:1 105:2 107:4 110:4 116:1 117:2 125:1 128:3 134:1 136:16 137:2 139:2 159:2 162:1 163:2 164:1 165:15 166:2 167:1 172:2 176:1 182:1 199:1 215:1 221:2 230:4 233:1 235:3 263:1 270:2 271:5 277:6 279:2 287:1 292:1 304:6 310:11 331:1 353:1 358:1 370:3 372:2 374:1 542:3 570:1 577:1 579:1 587:1 590:1 600:1 603:1 605:1 695:4 698:6 707:2 708:1 712:1 739:3 742:1 747:1 761:7 768:1 775:2 777:4 807:1 817:3 825:1 846:3 867:5 878:1 885:1 887:1 930:2 988:3 989:3 1099:1 1114:1 1127:1 1175:1 1187:3 1196:1 1210:1 1244:1 1248:1 1274:1 1373:2 1380:2 1386:1 1416:1 1460:1 1461:1 1476:1 1538:1 1549:2 1620:1 1655:2 1666:1 1697:1 1704:1 1723:1 1800:3 1840:1 1847:1 1892:1 1907:1 1929:2 2002:1 2053:1 2145:1 2146:1 2200:4 2224:1 2229:1 2441:1 2485:1 2529:1 2580:1 2583:1 2587:1 2613:1 2614:1 2638:1 2661:3 2698:1 2700:1 2711:1 2752:1 2763:1 2804:1 2827:1 2861:1 2951:1 3010:1 3113:1 3119:1 3129:1 3244:1 3252:1 3306:1 3312:1 3316:1 3372:1 3473:1 3761:1 3817:1 3827:1 3859:1 3945:1 4091:1 4268:3 4340:1 4482:1 4756:1 4901:1 5039:2 5061:1 5177:1 5199:1 5289:2 5300:1 5421:1 5724:1 6013:1 6089:1 6177:1 6290:1 7050:1 7092:1 7702:1 7988:1 8106:1 8236:1 8257:1 8267:1 8366:2 8367:1 8482:1 8491:1 8586:1 8607:1 9321:1 9506:1 9557:1 9981:1 10262:1 10328:2 10346:1 10385:1 10456:1 10710:1 10782:1 10799:1 10862:1 11222:1 11710:1 11745:2 11823:1 11854:2 11894:1 12425:1 12783:1 13489:1 14201:2 16512:1 18738:2 19264:3 19538:1 19739:1 19982:1 22844:1 23604:1 23637:1 23743:2 23799:1 23809:1 23950:1 24123:1 24124:1 26622:1 26826:1 28142:1 29527:1 30092:2 32016:1 42363:1 42780:1 47231:1 48055:1 49104:1 49408:1 50732:1 54410:1 58966:1 62872:1 66130:1 70848:1 81722:1 95793:1 95794:1 95795:1 95796:1 95797:1 95798:1 95799:1 95800:1 95801:1 95802:1 95803:1 95804:1 95805:1 95806:1 95807:1 #
0.0011745198814033554202129749910455 1:1 39:1 42:1 63:1 64:1 72:1 88:1 118:1 136:1 137:1 164:1 182:1 192:1 223:1 232:1 261:1 280:1 291:1 292:1 584:2 601:1 984:1 1163:1 2232:1 2613:1 2724:1 30739:1 #
0.0011745198814033554202129749910455 1:1 4:2 8:3 12:3 17:1 19:1 22:5 33:1 36:1 37:1 42:2 48:1 72:1 92:1 99:1 105:1 107:2 110:1 111:2 117:1 118:3 125:1 128:1 134:1 136:8 159:1 163:2 164:1 165:1 182:1 271:1 292:2 310:2 312:2 323:1 331:2 333:1 370:3 372:1 559:1 602:1 698:1 708:1 724:1 729:1 742:1 748:1 769:1 771:1 777:1 817:1 851:1 968:2 975:1 1015:1 1159:1 1246:1 1386:1 1420:1 1594:1 1640:1 1692:1 1723:1 1818:1 1907:1 2124:1 2229:1 2583:1 2717:1 2752:1 2985:1 3042:1 3113:1 3119:1 3295:2 3343:1 3831:1 4827:1 6285:1 6333:1 7307:1 7450:1 8446:1 10185:1 12234:1 12235:1 15660:1 27023:1 51877:1 53028:1 86679:1 #
0.0011745198814033554202129749910455 1:1 4:3 8:8 12:5 17:6 20:1 21:6 22:18 33:2 36:3 37:2 42:4 52:4 56:3 65:1 72:4 80:1 88:1 92:1 94:2 99:3 107:3 110:3 112:1 117:2 118:1 125:1 128:2 136:15 137:2 138:1 159:2 165:5 172:10 180:3 182:1 215:6 221:3 230:1 270:1 276:1 277:10 278:1 279:5 291:1 292:3 310:10 358:2 370:1 372:1 570:2 577:3 584:3 603:1 687:2 698:2 712:1 724:1 729:1 741:1 761:4 764:1 773:1 775:1 776:1 777:3 785:2 787:1 810:1 817:3 825:2 846:1 851:1 852:1 968:1 989:1 1015:3 1063:1 1091:1 1132:1 1213:1 1243:1 1274:1 1449:2 1550:1 1654:1 1692:1 1800:2 1852:1 1907:2 1928:1 2002:1 2022:1 2103:1 2229:2 2640:1 2661:1 2907:3 2996:1 3086:1 3116:1 3372:3 3381:1 3390:1 3640:1 3774:1 3802:2 3905:1 4526:1 4824:2 5289:1 5898:1 5936:2 6016:1 6081:1 6335:1 6777:1 7272:1 7278:1 7758:1 8021:1 8096:1 8110:1 8119:1 8298:5 8314:1 8339:2 8513:1 9238:1 9277:1 9507:1 9536:1 9538:1 9744:1 9745:1 9829:1 9979:1 10095:2 10378:3 10407:1 10456:1 10710:1 10786:1 10846:1 11071:1 11685:1 11745:1 12237:1 12581:1 12666:1 13684:1 14403:1 14644:1 15998:1 16672:1 17462:1 18738:1 19509:1 19783:1 20697:1 21750:1 21785:1 21791:1 23949:1 23964:1 25961:1 27044:1 29305:1 33568:1 34717:1 35356:1 36762:1 37216:1 38555:1 38873:1 43939:1 46694:1 47188:1 47190:1 50239:2 57668:1 58477:1 63480:1 64003:1 64008:1 64245:1 67122:2 68811:1 71216:1 71698:1 72036:1 73055:1 73210:1 73773:1 74717:1 76257:3 78160:1 78161:1 78162:2 78163:7 78164:1 78165:1 78166:1 78167:1 78168:1 78169:1 78170:1 78171:1 78172:1 78173:1 78174:1 78175:1 78176:1 78177:1 78178:1 78179:1 78180:2 78181:1 78182:1 78183:1 #
0.0011745198814033554202129749910455 1:1 8:1 12:2 22:1 42:2 48:1 52:2 56:1 72:1 76:1 88:1 107:3 110:2 125:1 134:1 136:4 159:1 172:1 265:1 293:1 340:1 369:1 373:1 590:1 601:2 687:1 774:1 952:1 995:1 1099:1 1154:1 1201:1 1300:1 1661:1 1831:1 2115:1 2541:1 2612:2 2760:2 2996:1 3067:1 3787:1 5089:1 5206:1 9870:1 26891:1 28192:2 37887:1 82641:1 82642:1 #
0.0011745198814033554202129749910455 1:1 4:2 8:3 12:2 17:2 22:5 33:1 36:1 39:3 42:3 51:1 56:1 65:1 92:3 107:6 110:1 118:1 134:1 136:3 137:1 163:1 164:2 169:1 268:1 298:3 302:1 471:1 554:1 562:1 760:1 930:1 1380:1 1602:1 1644:1 1699:1 1811:1 2126:1 2204:1 2624:1 2661:1 2739:1 3045:1 3348:1 3354:2 3364:3 4254:1 4892:1 4912:3 5373:1 5776:1 6658:1 7224:1 7515:1 7893:1 8021:1 9167:1 9271:1 9278:1 11587:1 13224:1 15519:1 21778:1 29513:2 32310:2 32986:1 73266:1 73267:1 #
0.0011745198814033554202129749910455 1:1 4:2 8:5 12:3 17:1 21:3 22:3 23:1 37:1 39:1 42:3 50:1 54:6 56:2 63:8 70:3 72:4 88:7 107:3 109:1 118:2 125:1 134:1 136:3 157:1 174:1 175:3 178:2 220:3 221:1 233:1 235:1 271:4 279:1 331:2 516:6 542:1 574:1 594:1 606:1 651:1 679:2 760:1 785:1 813:1 867:4 920:1 1001:2 1028:1 1045:1 1114:1 1137:1 1263:1 1374:1 1379:1 1412:1 1449:1 1454:1 1605:1 1902:1 2051:1 2058:1 2090:1 2222:1 2249:1 2255:1 2500:2 2509:1 2517:1 2613:1 2722:1 2738:1 2804:1 2809:1 3088:1 3293:1 3317:1 3423:1 3668:1 3900:1 4156:1 4227:2 4281:1 4878:1 5144:1 5145:1 5146:1 5147:2 5148:1 5149:1 5150:1 5151:1 5152:2 5153:1 5154:1 5155:1 5156:1 5157:1 5158:1 5159:1 5160:1 5161:1 5162:1 5163:1 5164:1 5165:1 5166:1 5167:1 5168:1 6653:1 7445:1 9963:1 13741:1 36478:1 #
0.0011745198814033554202129749910455 1:1 4:1 8:1 12:2 14:2 33:1 42:2 76:1 95:1 107:1 110:2 118:1 125:2 165:1 166:1 172:1 178:1 230:1 270:1 277:1 310:2 352:1 369:1 370:1 572:1 695:1 736:1 775:1 867:1 892:1 954:2 1154:6 1332:1 1416:1 1420:1 1697:1 2031:1 2058:1 2085:1 2170:1 2221:1 2717:1 2722:1 2826:1 3119:1 3305:1 3392:1 3519:1 3620:1 3761:1 5060:1 7601:1 9921:1 11710:1 21125:1 36788:1 80095:1 83269:1 #
0.0011745198814033554202129749910455 1:1 8:1 94:1 125:2 136:2 215:1 539:1 542:1 584:2 773:1 4268:1 5507:1 8300:1 19198:1 25630:1 64971:1 #
0.0011745198814033554202129749910455 1:1 8:1 17:1 19:1 22:1 37:1 42:2 72:1 136:3 163:1 185:1 310:1 602:1 603:1 785:1 967:2 1706:1 1892:1 2499:1 5588:1 12236:1 13226:1 20154:1 #
-0.0011745198814033554202129749910455 1:1 8:1 12:1 70:2 72:1 107:1 136:1 137:1 698:1 754:1 761:1 1020:1 1108:1 1852:1 4277:1 5801:2 9997:1 13849:1 15866:1 17848:1 17849:1 20180:1 26991:1 32706:1 32877:1 35189:1 38544:1 42542:1 45020:1 50293:1 50294:1 50295:1 50296:1 50297:1 50298:1 50299:1 50300:1 50301:1 50302:1 #
0.0011745198814033554202129749910455 1:1 4:2 7:1 8:13 9:2 12:12 17:3 33:2 39:9 42:13 54:2 56:6 63:6 70:3 72:2 88:2 91:2 105:1 107:1 111:2 118:1 122:1 123:1 125:2 128:2 129:3 134:2 136:4 137:1 154:2 161:1 163:1 169:2 175:1 178:1 180:1 235:1 271:5 302:1 306:1 312:1 341:1 344:1 345:1 370:1 372:1 516:1 539:2 542:1 563:3 565:1 568:4 572:1 577:1 580:1 582:2 594:4 613:1 627:2 628:2 638:2 663:1 708:1 739:1 751:1 754:1 761:1 775:1 793:1 867:4 964:1 968:1 1045:1 1166:1 1225:4 1246:1 1259:1 1314:1 1397:1 1416:1 1453:1 1557:1 1594:3 1609:1 1620:1 1652:1 1663:2 1676:1 1692:1 1785:2 1791:3 1856:1 1900:1 1902:2 2058:1 2070:1 2106:1 2133:1 2134:1 2192:1 2223:1 2483:4 2613:1 2646:1 2656:1 2698:1 2763:1 2781:1 2867:1 2923:1 2928:1 3033:2 3271:4 3332:1 3429:1 3435:1 3436:1 3488:1 3512:1 3518:5 3519:5 3763:1 3817:1 4118:1 4243:2 4281:2 4338:2 4438:1 4521:2 5053:1 5059:1 5217:1 5268:1 5476:1 5522:1 5540:1 5655:1 5780:1 5801:4 5911:1 6068:4 6308:1 6508:1 6670:1 7176:1 7633:6 7647:1 7648:1 7649:2 8021:1 8543:1 9029:1 9186:1 10149:1 10795:1 11265:1 11591:3 11699:1 11998:4 12235:1 12552:1 13062:5 14153:1 19463:1 22032:2 22038:1 22890:2 23331:3 23403:1 23406:3 23407:1 25608:1 27649:1 34664:1 52214:3 52216:1 52217:1 52218:1 52219:1 52220:1 71108:1 78652:3 78653:1 78654:1 #
0.0011745198814033554202129749910455 1:1 4:1 8:4 33:4 37:1 41:2 42:3 56:1 60:1 63:1 72:1 91:1 110:1 111:1 125:1 136:2 137:1 179:1 215:1 271:1 272:1 277:1 304:1 310:2 316:1 358:1 373:1 539:1 584:1 588:1 594:1 705:1 796:1 991:1 1002:1 1013:1 1022:1 1049:1 1154:1 1191:1 1420:1 1723:1 2006:1 2639:1 2640:1 2718:1 2724:1 2858:1 3441:2 3599:1 4364:1 4606:1 4803:1 5284:1 6736:2 6859:1 6887:1 32505:1 35289:1 59191:1 #
0.0011745198814033554202129749910455 1:1 4:6 8:16 9:2 12:12 17:7 19:1 21:5 22:9 36:4 37:4 39:1 42:15 43:1 49:1 50:1 52:4 54:1 56:1 60:1 63:12 70:2 71:1 72:8 76:1 81:2 88:6 92:1 94:1 97:1 99:1 105:9 107:4 110:2 112:1 115:1 116:2 118:4 121:2 125:2 128:7 129:1 134:6 136:8 137:2 138:2 159:2 163:6 164:1 165:5 175:1 176:2 178:1 195:1 208:1 221:1 235:3 265:1 271:3 272:1 277:2 279:1 286:1 291:1 292:1 293:1 294:1 303:1 304:1 310:2 312:1 313:1 331:1 332:2 344:1 346:1 363:3 392:2 423:1 444:1 445:1 516:1 532:1 542:4 543:2 544:3 551:3 563:4 570:5 584:1 586:1 600:2 603:1 627:1 695:1 698:3 705:1 719:1 725:2 729:4 750:1 760:1 768:1 771:1 775:2 792:1 797:1 814:1 818:1 867:4 877:1 966:1 989:1 992:1 1023:1 1064:1 1083:3 1099:1 1114:1 1212:1 1244:2 1246:1 1320:2 1400:3 1461:1 1526:9 1605:1 1632:1 1646:3 1670:2 1677:1 1692:3 1811:3 1889:1 1894:1 1914:1 1923:1 1925:1 1929:2 2002:1 2078:1 2147:1 2173:1 2176:1 2229:3 2239:1 2281:7 2559:1 2654:1 2739:1 2803:2 2967:1 2988:1 3119:1 3129:4 3162:1 3189:2 3373:2 3378:1 3384:1 3434:1 3577:1 3735:1 3941:1 3974:1 4184:4 4821:1 4894:1 5104:1 5110:1 5231:1 5379:1 5736:1 5781:1 5787:1 5872:8 6226:1 6496:1 6627:2 6667:1 6976:1 7155:1 7381:1 7404:1 7431:2 7985:1 9113:1 9599:2 9615:1 9735:1 9742:1 9776:1 9962:1 10099:2 10786:1 10799:1 11049:1 12583:1 12934:1 14042:1 16579:1 17674:2 19111:1 20317:1 21337:1 23689:1 24057:1 27549:1 39199:1 47589:2 63538:1 69223:1 72541:1 72542:1 72543:1 72544:1 #
0.0011745198814033554202129749910455 1:1 4:3 8:2 12:2 14:3 22:1 33:2 42:1 77:2 125:1 129:1 134:1 156:1 173:1 178:1 219:1 271:1 292:1 374:1 513:3 543:1 551:1 567:1 579:1 590:1 690:1 695:1 789:1 883:1 1083:1 1109:1 1159:1 1169:1 1227:1 1263:1 1431:2 1529:2 1603:4 1652:1 2541:1 2551:1 2698:4 2960:1 3170:1 3403:1 3747:1 4625:3 5052:1 5808:2 5831:2 6607:1 6610:1 6653:1 7426:1 8206:1 11788:1 13828:4 14058:1 21511:1 39616:1 48039:1 50330:1 52233:1 101281:1 #
0.0011745198814033554202129749910455 1:1 4:4 8:6 12:3 17:3 21:2 22:4 33:1 37:1 42:8 46:1 60:1 63:1 70:1 72:1 74:1 88:1 99:1 105:1 107:2 110:5 117:1 125:1 128:1 134:1 136:11 137:2 159:1 163:1 175:1 223:1 230:1 270:1 271:1 277:1 279:2 291:2 298:1 304:1 310:9 354:1 399:1 528:1 544:1 570:1 584:5 590:1 603:2 692:1 695:1 724:2 739:3 761:2 771:1 793:1 867:1 930:1 952:1 979:1 1015:1 1048:1 1097:1 1300:1 1594:1 1600:1 1661:1 1689:2 1692:3 1719:1 1752:1 1791:1 1840:1 2011:1 2018:1 2053:1 2098:1 2125:1 2151:1 2753:1 3002:2 3064:1 3129:1 3151:1 3174:1 3560:1 3758:1 3761:1 3800:1 3852:2 4107:1 4330:2 4498:1 4499:1 4500:1 4501:1 4502:1 4503:1 4504:1 4505:1 4506:1 4507:1 4508:1 4509:1 4510:1 #
0.0011745198814033554202129749910455 1:1 4:5 8:6 12:3 17:4 22:3 33:1 36:2 37:3 42:11 49:3 52:1 56:2 70:2 72:3 88:1 93:1 103:1 105:1 107:2 110:12 116:1 128:1 134:1 136:8 139:2 159:1 163:4 164:1 165:5 182:2 208:2 211:4 259:1 263:1 271:4 279:2 304:4 310:5 331:1 340:1 342:1 372:4 414:2 542:1 577:1 590:1 600:1 603:1 679:1 698:1 739:3 761:5 771:2 773:1 777:1 793:1 859:1 867:1 892:2 894:1 912:1 941:1 949:1 1015:1 1132:2 1167:1 1205:1 1210:1 1227:1 1309:1 1311:1 1395:1 1416:1 1420:1 1453:1 1476:2 1477:1 1510:1 1549:1 1594:1 1610:1 1615:1 1692:3 1769:1 1790:1 1805:1 1863:1 1883:1 1902:1 1923:1 1980:2 1997:1 2040:1 2531:1 2649:1 2661:3 2710:1 2718:1 2964:2 2988:1 3064:1 3088:1 3113:1 3129:2 3145:1 3392:2 3616:1 3648:1 3905:1 3993:1 4228:1 4273:1 4446:1 5277:1 5480:1 5792:1 6957:1 7551:2 7600:1 7785:1 8540:1 9506:1 10121:1 10359:1 12730:1 13323:1 23662:1 #
0.0011745198814033554202129749910455 1:1 8:1 72:1 88:1 111:1 310:1 372:1 572:1 594:6 639:1 692:1 1015:1 1829:1 2081:1 2146:1 2223:2 2517:6 3293:6 4481:1 7702:1 48952:1 71120:1 71121:1 71122:1 71123:1 71124:1 71125:1 #
0.00073538029201437350723669084118228 1:1 4:3 8:3 12:4 17:3 21:1 22:10 33:2 37:3 39:1 42:9 54:8 56:1 63:1 70:2 72:2 76:3 88:2 94:1 96:1 99:1 107:4 110:6 120:1 122:1 128:4 134:2 136:11 138:1 159:1 163:3 164:1 165:3 167:1 172:4 175:1 182:2 199:1 215:1 221:5 230:2 235:2 259:1 270:1 271:3 277:4 279:4 282:1 286:1 291:1 304:2 310:24 333:1 340:1 342:1 346:1 369:1 373:2 516:10 542:2 543:2 570:1 572:1 577:1 579:1 584:5 586:3 587:1 588:1 590:1 594:1 598:1 603:1 682:1 684:1 687:2 692:5 698:2 705:1 712:1 739:2 747:1 750:1 761:7 771:1 773:1 775:2 777:1 793:1 851:1 867:1 930:1 952:1 989:5 991:1 1002:1 1003:1 1005:2 1023:1 1032:2 1063:1 1064:1 1099:1 1100:1 1114:2 1154:2 1187:1 1192:1 1201:1 1243:1 1307:2 1340:1 1386:1 1499:1 1538:1 1540:4 1600:1 1640:1 1689:1 1722:1 1723:1 1762:1 1800:1 2147:1 2184:1 2200:1 2203:1 2224:1 2258:1 2276:1 2283:1 2517:1 2587:3 2608:2 2613:1 2698:1 2700:1 2717:1 2731:1 2752:1 2798:1 2946:1 2988:4 3129:2 3146:1 3293:1 3316:1 3334:1 3862:1 3943:1 4091:1 4221:1 4274:1 5059:1 5622:1 6953:1 7753:1 8021:1 8036:1 8371:1 8471:1 9082:2 9448:1 9635:1 9973:1 10363:1 10385:2 10389:1 10803:1 11259:1 11606:1 13450:1 13935:1 15413:1 19101:1 19102:1 19103:1 19196:1 19197:3 19198:1 19199:1 19200:1 19201:1 19202:1 19203:1 #
0.00033385139255317889967616951096829 1:1 4:1 12:2 22:1 39:1 107:1 136:1 178:1 185:1 232:1 298:1 395:1 591:1 695:1 946:1 992:2 1001:1 1013:1 2118:1 2697:1 2722:1 2752:1 2780:1 2880:1 2993:1 3751:1 3808:1 3810:1 4486:1 4544:1 4558:1 6653:1 7177:1 7228:1 47918:1 47919:1 47920:1 47921:1 47922:1 81555:1 #
0.0011745198814033554202129749910455 1:2 2:1 30:1 35:1 67:1 74:2 120:2 157:1 168:1 209:1 210:1 221:1 223:1 309:1 358:2 513:22 563:1 569:1 598:2 644:1 650:1 651:2 652:12 661:1 662:3 663:3 773:10 849:5 912:1 953:1 1106:1 1391:1 1519:1 1530:1 1770:1 1794:2 1971:1 2050:1 2177:1 2654:1 2656:1 2717:2 2731:1 2739:2 2771:1 2969:1 2984:2 2996:1 3035:2 3151:1 3315:1 3371:2 3431:1 3463:1 3477:2 3547:1 3921:1 3929:3 4240:1 4364:1 6539:1 6541:1 6653:1 6869:1 7666:1 8199:1 9316:1 10265:2 12467:1 13287:1 13365:1 14731:1 15110:1 15372:1 19972:1 22609:2 25235:4 26280:1 26458:1 27445:1 37972:1 46902:1 47693:1 54160:1 63090:2 63959:5 74336:1 74337:1 #
0.0011745198814033554202129749910455 1:1 4:2 8:5 22:2 56:1 57:1 72:1 88:1 93:1 107:2 165:1 211:1 273:1 277:1 297:2 303:1 310:1 344:1 373:1 428:1 542:1 559:1 582:1 704:1 760:1 859:1 973:1 1375:1 1461:1 1512:1 1726:1 1828:1 2112:1 2113:1 2124:1 2969:1 3539:1 5030:1 6653:1 19540:1 20237:2 34145:1 35371:1 #
-0.0011745198814033554202129749910455 1:2 4:1 8:6 12:1 17:4 22:2 33:1 39:1 42:3 56:3 70:2 72:1 88:1 115:1 116:1 125:2 134:2 136:2 139:1 163:2 175:1 178:3 179:1 271:2 277:1 319:1 338:1 513:1 544:1 594:2 652:1 663:1 867:1 912:1 937:1 946:1 1038:1 1045:1 1083:1 1097:2 1114:1 1135:1 1941:2 2081:1 2103:1 2255:1 2483:1 2711:1 2720:1 2733:1 2994:1 3332:1 3393:3 3403:1 3424:1 3900:2 4181:1 4200:1 4228:1 5882:1 8374:1 9304:1 9468:1 9812:1 10003:1 10082:1 10134:1 12734:2 13207:2 18396:1 21253:1 24939:1 28355:1 39751:1 39929:2 51937:2 56762:1 74178:1 78656:1 #
